tree
version=v4
num_class=1
num_tree_per_iteration=1
label_index=0
max_feature_idx=222
objective=regression
feature_names=CountyNameCo__Carlow CountyNameCo__Cavan CountyNameCo__Clare CountyNameCo__Cork CountyNameCo__Donegal CountyNameCo__Dublin CountyNameCo__Galway CountyNameCo__Kerry CountyNameCo__Kildare CountyNameCo__Kilkenny CountyNameCo__Laois CountyNameCo__Leitrim CountyNameCo__Limerick CountyNameCo__Longford CountyNameCo__Louth CountyNameCo__Mayo CountyNameCo__Meath CountyNameCo__Monaghan CountyNameCo__Offaly CountyNameCo__Roscommon CountyNameCo__Sligo CountyNameCo__Tipperary CountyNameCo__Waterford CountyNameCo__Westmeath CountyNameCo__Wexford CountyNameCo__Wicklow CountyNameCork_City CountyNameDublin_1 CountyNameDublin_10 CountyNameDublin_11 CountyNameDublin_12 CountyNameDublin_13 CountyNameDublin_14 CountyNameDublin_15 CountyNameDublin_16 CountyNameDublin_17 CountyNameDublin_18 CountyNameDublin_2 CountyNameDublin_20 CountyNameDublin_22 CountyNameDublin_24 CountyNameDublin_3 CountyNameDublin_4 CountyNameDublin_5 CountyNameDublin_6 CountyNameDublin_6W CountyNameDublin_7 CountyNameDublin_8 CountyNameDublin_9 CountyNameGalway_City CountyNameLimerick_City CountyNameWaterford_City DwellingTypeDescrDetached_house DwellingTypeDescrEnd_of_terrace_house DwellingTypeDescrGround_floor_apartment DwellingTypeDescrHouse DwellingTypeDescrMaisonette DwellingTypeDescrMid_floor_apartment DwellingTypeDescrMid_terrace_house DwellingTypeDescrSemi_detached_house DwellingTypeDescrTop_floor_apartment Year_of_Construction GroundFloorArea_sq_m_ UValueWall UValueRoof UValueFloor UValueWindow UvalueDoor WallArea RoofArea FloorArea WindowArea DoorArea NoStoreys MainSpaceHeatingFuelBottled_LPG MainSpaceHeatingFuelBulk_LPG__propane_or_butane_ MainSpaceHeatingFuelElectricity MainSpaceHeatingFuelHeating_Oil MainSpaceHeatingFuelHouse_Coal MainSpaceHeatingFuelMains_Gas MainSpaceHeatingFuelManufactured_Smokeless_Fuel MainSpaceHeatingFuelPeat_Briquettes MainSpaceHeatingFuelSod_Peat MainSpaceHeatingFuelSolid_Multi_Fuel MainSpaceHeatingFuelWood_Logs MainSpaceHeatingFuelWood_Pellets__bulk_supply_for MainSpaceHeatingFuelWood_Pellets__in_bags_for_seco MainWaterHeatingFuelBottled_LPG MainWaterHeatingFuelBulk_LPG__propane_or_butane_ MainWaterHeatingFuelElectricity MainWaterHeatingFuelHeating_Oil MainWaterHeatingFuelHouse_Coal MainWaterHeatingFuelMains_Gas MainWaterHeatingFuelManufactured_Smokeless_Fuel MainWaterHeatingFuelPeat_Briquettes MainWaterHeatingFuelSod_Peat MainWaterHeatingFuelSolid_Multi_Fuel MainWaterHeatingFuelWood_Chips MainWaterHeatingFuelWood_Logs MainWaterHeatingFuelWood_Pellets__bulk_supply_for MainWaterHeatingFuelWood_Pellets__in_bags_for_seco HSMainSystemEfficiency TGDLEdition HSEffAdjFactor HSSupplHeatFraction HSSupplSystemEff WHMainSystemEff WHEffAdjFactor SupplSHFuel SupplWHFuel SHRenewableResources WHRenewableResources NoOfChimneys NoOfOpenFlues NoOfFansAndVents NoOfFluelessGasFires DraftLobbyNO DraftLobbyYES VentilationMethodBal_whole_mech_vent_heat_recvr VentilationMethodBal_whole_mech_vent_no_heat_re VentilationMethodNatural_vent_ VentilationMethodPos_input_vent___loft VentilationMethodPos_input_vent___outside VentilationMethodWhole_house_extract_vent_ FanPowerManuDeclaredValue HeatExchangerEff StructureTypeInsulated_Conctete_Form StructureTypeMasonry StructureTypePlease_select StructureTypeTimber_or_Steel_Frame SuspendedWoodenFloorNo SuspendedWoodenFloorYes__Sealed_ SuspendedWoodenFloorYes__Unsealed_ PercentageDraughtStripped NoOfSidesSheltered PermeabilityTestNO PermeabilityTestYES PermeabilityTestResult TempAdjustment HeatSystemControlCat HeatSystemResponseCat NoCentralHeatingPumps CHBoilerThermostatControlledYES NoOilBoilerHeatingPumps OBBoilerThermostatControlledYES OBPumpInsideDwellingYES NoGasBoilerHeatingPumps WarmAirHeatingSystemYES UndergroundHeatingYES GroundFloorUValue DistributionLosses CylinderStatYES CombinedCylinderYES SWHPumpSolarPoweredYES ChargingBasisHeatConsumedYES GroundFloorArea GroundFloorHeight FirstFloorArea FirstFloorHeight SecondFloorArea SecondFloorHeight ThirdFloorArea ThirdFloorHeight ThermalBridgingFactor ThermalMassCategoryLow ThermalMassCategoryMedium ThermalMassCategoryMedium_high ThermalMassCategoryMedium_low LowEnergyLightingPercent LivingAreaPercent HESSchemeUpgrade age_band_bin_1900_0__1929_0_ age_band_bin_1929_0__1949_0_ age_band_bin_1949_0__1966_0_ age_band_bin_1966_0__1977_0_ age_band_bin_1977_0__1982_0_ age_band_bin_1982_0__1993_0_ age_band_bin_1993_0__1999_0_ age_band_bin_1999_0__2004_0_ age_band_bin_2004_0__2009_0_ age_band_bin_2009_0__inf_ AgeBandB AgeBandC AgeBandD AgeBandE AgeBandF AgeBandG AgeBandH AgeBandI AgeBandJ AgeBandK PUValueWall PUValueRoof CountyCavan CountyClare CountyCork CountyDonegal CountyDublin CountyGalway CountyKerry CountyKildare CountyKilkenny CountyLaois CountyLeitrim CountyLimerick CountyLongford CountyLouth CountyMayo CountyMeath CountyMonaghan CountyOffaly CountyRoscommon CountySligo CountyTipperary CountyWaterford CountyWestmeath CountyWexford CountyWicklow ThermalEraPre WallHeatLossProxy RoofHeatLossProxy FloorHeatLossProxy WindowHeatLossProxy
feature_infos=[0:1] [0:1] [0:1] [0:1] [0:1] [0:1] [0:1] [0:1] [0:1] [0:1] [0:1] [0:1] [0:1] [0:1] [0:1] [0:1] [0:1] [0:1] [0:1] [0:1] [0:1] [0:1] [0:1] [0:1] [0:1] [0:1] [0:1] none none [0:1] [0:1] [0:1] [0:1] [0:1] [0:1] none [0:1] none none [0:1] [0:1] none [0:1] [0:1] none none [0:1] [0:1] [0:1] [0:1] [0:1] [0:1] [0:1] [0:1] [0:1] [0:1] [0:1] [0:1] [0:1] [0:1] [0:1] [1760:2023] [18.969999999999999:420.98000000000002] [0.14000000000000001:3.2799999999999998] [0:1.99] [0:1.1299999999999999] [0.77000000000000002:5.7000000000000002] [0:3.8999999999999999] [2.77:356] [0:288.99000000000001] [0:255.31] [2.3700000000000001:83.120000000000005] [0:6.7800000000000002] [1:6] none [0:1] [0:1] [0:1] none [0:1] [0:1] none none [0:1] none none none none [0:1] [0:1] [0:1] none [0:1] [0:1] none none [0:1] none none none none [0:389.44999999999999] [0:4] [0.59999999999999998:1.03] [0:0.5] [0:250] [0:389.30000000000001] [0:1.03] [1:28030] [1:28] [1:6] [1:6] [0:8] [0:8] [0:27] [0:5] [0:1] [0:1] [0:1] none [0:1] none none [0:1] [0:3.1000000000000001] [0:94] [0:1] [0:1] [0:1] [0:1] [0:1] [0:1] [0:1] [0:100] [0:4] [0:1] [0:1] [0:1] [-0.25:3] [1:3] [1:5] [0:11] [0:1] [0:2] [0:1] [0:1] [0:11] none [0:1] [0:0.98999999999999999] [0:670.95000000000005] [0:1] [0:1] none none [0:253.31] [0:3.4500000000000002] [0:245] [0:20.890000000000001] [0:144.59] [0:4.46] [0:98.790000000000006] [0:18.899999999999999] [0:0.17999999999999999] [0:1] [0:1] [0:1] [0:1] [0:100] [0:70.475899999999996] [0:1] [0:1] [0:1] [0:1] [0:1] [0:1] [0:1] [0:1] [0:1] [0:1] [0:1] [0:1] [0:1] [0:1] [0:1] [0:1] [0:1] [0:1] [0:1] [0:1] [0:1] [0.14000000000000001:2.8999999999999999] [0:1.99] [0:1] [0:1] [0:1] [0:1] [0:1] [0:1] [0:1] [0:1] [0:1] [0:1] [0:1] [0:1] [0:1] [0:1] [0:1] [0:1] [0:1] [0:1] [0:1] [0:1] [0:1] [0:1] [0:1] [0:1] [0:1] [0:1] [0.74790000000000001:985.15899999999999] [0:365.45710000000003] [0:383.09179999999998] [4.1859999999999999:320.79599999999999]
tree_sizes=4195 4230 4215 4224 4221 4231 4219 4229 4202 4231 4233 4223 4219 4229 4227 4224 4199 4206 4207 4221 4242 4243 4222 4228 4252 4265 4254 4273 4251 4236 4274 4290 4238 4264 4252 4250 4215 4239 4278 4267 4252 4267 4236 4247 4272 4259 4268 4311 4262 4260 4276 4266 4306 4264 4287 4289 4306 4295 4273

Tree=0
num_leaves=48
num_cat=0
split_feature=222 219 222 222 96 106 92 106 140 71 141 150 220 220 222 141 105 219 139 106 139 222 105 222 221 156 221 139 222 103 150 222 221 139 142 106 222 219 62 169 219 139 221 158 221 157 168
split_gain=3.25899e+07 8.59315e+06 6.5111e+06 3.99531e+06 2.56208e+06 2.48443e+06 1.94487e+06 1.49316e+06 1.3487e+06 2.02264e+06 1.08302e+06 800855 714311 640704 605857 664516 558250 512188 507306 377364 372139 445032 359216 352643 350673 323364 308970 265455 263647 204927 183033 179171 161870 156147 152636 152090 149800 148948 126576 190439 153231 125961 125753 122586 121736 116976 113199
threshold=66.76900000000002 232.49550000000002 42.14350000000001 100.47115000000001 1.0000000180025095e-35 71.90000000000002 1.0000000180025095e-35 65.90000000000002 1.5000000000000002 32.805000000000007 1.0000000180025095e-35 598.05650000000003 71.027100000000019 73.304500000000019 26.661500000000004 1.0000000180025095e-35 37.500000000000007 105.35400000000003 1.5000000000000002 86.550000000000011 1.5000000000000002 84.765000000000015 32.500000000000007 28.498500000000003 96.883100000000013 2.5350000000000006 45.169700000000006 1.5000000000000002 53.655300000000004 0.96950000000000014 431.58350000000002 52.509600000000006 90.755600000000015 1.5000000000000002 1.0000000180025095e-35 61.250000000000007 117.94815000000001 57.321050000000007 140.86500000000004 13.207600000000001 45.552850000000007 1.5000000000000002 54.261450000000004 2.1550000000000007 68.711200000000019 94.585000000000022 3.5000000000000004
decision_type=2 2 2 2 2 2 2 2 2 2 2 2 2 2 2 2 2 2 2 2 2 2 2 2 2 2 2 2 2 2 2 2 2 2 2 2 2 2 2 2 2 2 2 2 2 2 2
left_child=2 3 7 8 6 24 10 17 13 -10 -4 16 22 20 34 46 19 23 25 36 21 38 26 -1 -5 -18 -12 42 -8 30 -28 37 44 43 -9 -25 -7 -24 40 -40 -2 -30 -17 -33 -23 -22 -16
right_child=1 -3 4 5 -6 11 28 14 9 -11 12 -13 -14 -15 15 27 18 -19 -20 -21 45 32 31 35 -26 -27 29 -29 41 -31 -32 33 -34 -35 -36 -37 -38 -39 39 -41 -42 -43 -44 -45 -46 -47 -48
leaf_value=88.499598147478338 90.67513043494364 105.61813248458749 95.044913262267372 99.202654602483079 98.111639207853372 96.296458694649175 89.007082764486853 88.005889143174372 101.67498756667109 92.181038422725408 90.367506368731796 99.326163343507176 94.876667607222856 96.136204028329573 89.792594991530379 88.628016012769677 93.848413715620694 93.400503090416947 92.527703731762756 94.401471247383554 91.515887290916908 95.044444807361359 90.224213633204002 92.084823513503892 103.46299940320922 97.69437212688932 92.065262710995881 88.018741309335851 90.782980955564028 90.357322159172412 94.27412033339472 90.673708184202738 96.143853206100914 89.893752817477719 87.228333794185943 89.770349379317821 99.114764428338731 88.390702690393482 92.059515969889105 94.287394355264212 92.542211290201863 89.608326994145202 89.648424845888115 92.384374013623912 92.874070774079925 92.925660246539707 91.700677010490537
leaf_weight=225 181 166 193 116 114 107 1307 1245 105 120 384 112 123 121 146 1423 122 138 320 150 921 113 367 171 101 103 666 2125 397 149 109 220 103 241 1341 120 105 158 222 171 279 535 387 199 160 175 164
leaf_count=225 181 166 193 116 114 107 1307 1245 105 120 384 112 123 121 146 1423 122 138 320 150 921 113 367 171 101 103 666 2125 397 149 109 220 103 241 1341 120 105 158 222 171 279 535 387 199 160 175 164
internal_value=90.6188 94.508 89.366 94.0323 90.7322 96.3821 90.5641 88.424 92.9431 96.6409 91.4401 95.3392 91.1726 92.6007 88.2055 88.574 94.8378 90.7062 93.8164 96.3625 92.4144 93.0118 90.9882 89.9816 101.235 95.6326 91.5592 88.3985 89.4651 92.0541 92.3803 90.3577 94.4444 90.906 87.6015 91.1308 97.7257 89.6692 92.3765 93.0358 91.8093 90.1083 88.8455 91.4885 93.7853 91.7429 90.8023
internal_weight=16720 4073 12647 3907 5162 1236 5048 7485 2671 225 2809 1019 2616 2446 6831 4245 907 654 545 362 2325 1229 2493 516 217 225 1308 3935 2239 924 775 1185 376 660 2586 291 212 525 853 393 460 932 1810 419 273 1096 310
internal_count=16720 4073 12647 3907 5162 1236 5048 7485 2671 225 2809 1019 2616 2446 6831 4245 907 654 545 362 2325 1229 2493 516 217 225 1308 3935 2239 924 775 1185 376 660 2586 291 212 525 853 393 460 932 1810 419 273 1096 310
is_linear=0
shrinkage=1


Tree=1
num_leaves=48
num_cat=0
split_feature=222 219 222 222 92 101 101 143 101 138 105 221 221 221 222 77 70 138 68 101 222 141 222 222 105 62 64 157 156 221 138 222 139 72 101 101 222 157 222 138 105 63 150 219 139 70 62
split_gain=3.14439e+07 8.09276e+06 5.15289e+06 4.9678e+06 2.06831e+06 1.98606e+06 1.56459e+06 1.21013e+06 1.20632e+06 783088 984639 929210 736868 703987 615400 589902 578400 546187 514531 495865 457822 372395 358178 323192 289389 327192 266624 235252 223827 213444 212519 209473 207325 203537 201576 192359 191648 174140 167063 161824 150057 186488 146898 141211 155258 123197 122460
threshold=63.942500000000003 250.27930000000001 99.16340000000001 42.14350000000001 1.0000000180025095e-35 71.90000000000002 65.90000000000002 1.0000000180025095e-35 65.90000000000002 0.18000000000000002 37.500000000000007 82.668200000000013 104.22670000000001 97.820700000000016 54.598700000000008 1.0000000180025095e-35 164.49000000000004 0.18000000000000002 89.885000000000005 77.950000000000017 26.432500000000001 1.0000000180025095e-35 29.258000000000006 87.671000000000021 47.500000000000007 129.50500000000002 0.40500000000000008 110.39000000000001 2.5250000000000004 56.639830000000011 0.18000000000000002 55.501400000000011 1.5000000000000002 2.1650000000000005 57.500000000000007 85.850000000000009 46.967650000000006 94.585000000000022 53.655300000000004 0.55000000000000016 37.500000000000007 0.39500000000000007 328.32750000000004 57.321050000000007 1.5000000000000002 65.555000000000021 97.335000000000022
decision_type=2 2 2 2 2 2 2 2 2 2 2 2 2 2 2 2 2 2 2 2 2 2 2 2 2 2 2 2 2 2 2 2 2 2 2 2 2 2 2 2 2 2 2 2 2 2 2
left_child=3 2 8 6 7 13 18 14 15 10 11 -7 33 -4 28 -2 17 29 22 26 -8 -22 -1 46 25 31 42 -12 36 -10 -23 -21 -31 -11 -24 -18 -5 40 -6 -27 41 -34 -9 44 45 -26 -19
right_child=1 -3 5 4 38 9 20 19 16 12 27 -13 -14 -15 -16 -17 35 23 -20 24 21 30 34 -25 43 39 -28 -29 -30 32 -32 -33 37 -35 -36 -37 -38 -39 -40 -41 -42 -43 -44 -45 -46 -47 -48
leaf_value=-1.9604383352338051 8.0741627385131025 15.8756296649346 7.308832638403949 1.419739768618629 -1.5643240853727023 2.3589261385771603 -2.8663184795636365 -0.066380651161741855 -0.17085480225488237 6.9885430426701269 1.6457069212207482 8.139950995272045 10.307637395537817 12.806306846626104 5.9163228322925248 3.1380446965203568 5.6030426852278801 0.35861438686649005 2.6967062942541329 -0.43001835858683002 -0.33263324910616565 -2.4061899671776006 1.9614095868232351 4.2660215408531661 -0.78403349148260582 1.0316508089081715 4.0109951210928996 4.4024188772567268 0.14595873968021289 2.8299883663991081 -1.6303995267039342 1.6530153694864993 2.6222653376514264 4.1966862576645481 -0.73426482268233806 2.5919822111581139 4.497763596209559 2.2897721847285282 -0.63273391182588035 3.4277763673237396 0.0022665852966696717 0.32541099389394129 2.175498487772765 -1.5989407857551294 -1.1997081699549343 1.3095377877975505 2.2163852324103632
leaf_weight=244 112 129 135 104 1312 110 2541 133 340 114 322 193 103 111 144 135 117 101 156 557 305 2653 143 193 110 176 114 102 110 176 1339 153 164 171 133 102 100 198 763 118 429 191 161 271 220 191 754
leaf_count=244 112 129 135 104 1312 110 2541 133 340 114 322 193 103 111 144 135 117 101 156 557 305 2653 143 193 110 176 114 102 110 176 1339 153 164 171 133 102 100 198 763 118 429 191 161 271 220 191 754
internal_value=0.00582886 3.57871 3.21241 -1.30732 -0.0391881 5.76492 -2.10667 0.883099 2.05751 4.85978 3.88187 6.05589 6.6774 9.8312 3.21877 5.39982 1.7571 1.54378 0.18778 0.396498 -2.33349 -2.01781 -0.568629 2.41903 0.0386632 0.602111 1.96773 2.31768 1.96682 0.930246 -2.14645 0.0205543 1.25341 5.33396 0.664446 4.21879 2.94316 0.968252 -1.22224 2.00172 0.632009 1.39088 1.16453 -0.675465 -0.192973 0.544383 1.9976
internal_weight=16753 4502 4373 12251 4737 1361 7514 2662 3012 1115 727 303 388 246 458 247 2765 2546 676 2204 6838 4297 520 1048 1796 1004 408 424 314 1498 3992 710 1158 285 276 219 204 982 2075 294 784 355 294 792 521 301 855
internal_count=16753 4502 4373 12251 4737 1361 7514 2662 3012 1115 727 303 388 246 458 247 2765 2546 676 2204 6838 4297 520 1048 1796 1004 408 424 314 1498 3992 710 1158 285 276 219 204 982 2075 294 784 355 294 792 521 301 855
is_linear=0
shrinkage=0.05


Tree=2
num_leaves=48
num_cat=0
split_feature=222 219 222 222 92 106 106 140 106 141 150 221 222 139 70 222 69 106 222 66 105 221 139 221 105 62 105 70 221 106 139 138 113 157 222 106 62 219 150 106 222 63 69 66 106 68 114
split_gain=2.86971e+07 8.70837e+06 4.8781e+06 4.18213e+06 1.78272e+06 1.66895e+06 1.64606e+06 1.59561e+06 1.09008e+06 924522 786085 758758 706232 704856 689156 647876 564430 505169 396825 394865 294633 285092 275312 255609 238796 209967 313223 206408 203840 188532 186828 161447 153432 148579 147334 141362 134232 132152 137590 191500 153976 130134 150712 127277 124501 155710 124129
threshold=66.76900000000002 250.27930000000001 45.356000000000009 103.38850000000001 1.0000000180025095e-35 65.90000000000002 75.450000000000017 2.5000000000000004 64.250000000000014 1.0000000180025095e-35 598.05650000000003 90.027850000000015 28.732250000000004 1.5000000000000002 159.55500000000004 27.810000000000006 65.890000000000015 95.100000000000009 84.765000000000015 2.8050000000000002 32.500000000000007 98.878450000000015 1.5000000000000002 47.584250000000004 47.500000000000007 153.47500000000002 56.500000000000007 164.49000000000004 61.620000000000012 82.950000000000017 1.5000000000000002 0.18000000000000002 1.0000000180025095e-35 40.655000000000008 53.655300000000004 85.250000000000014 205.33500000000001 45.22140000000001 304.90250000000009 85.140000000000015 77.125700000000009 0.82500000000000007 71.545000000000016 2.3350000000000004 82.750000000000014 104.40500000000002 1.5000000000000002
decision_type=2 2 2 2 2 2 2 2 2 2 2 2 2 2 2 2 2 2 2 2 2 2 2 2 2 2 2 2 2 2 2 2 2 2 2 2 2 2 2 2 2 2 2 2 2 2 2
left_child=2 3 5 7 8 15 11 13 -4 -10 19 -5 31 14 18 -1 33 22 37 27 23 24 28 -11 -21 -15 -27 -8 -14 32 41 -7 -20 -17 -6 -30 -28 -2 39 -39 -40 42 -22 -19 46 -46 -25
right_child=1 -3 4 6 34 12 10 -9 9 20 -12 -13 17 25 -16 16 -18 43 29 21 30 -23 -24 44 -26 26 36 -29 35 -31 -32 -33 -34 -35 -36 -37 -38 38 40 -41 -42 -43 -44 -45 45 -47 -48
leaf_value=-1.6587137370703211 0.8997812407146587 16.752291678413144 6.1145484816569553 6.1204140338404436 -1.4320354925472809 -2.8887130935078424 3.7951231625226067 7.1757321481611216 4.6148126447008506 0.093267280385319118 8.9184707972082773 11.641309722935832 -1.6252408078284661 0.21063435976585443 6.300991383318074 -0.90808868416045851 3.7812453758144793 -1.1007111822947477 6.1139316544526885 5.9301284408522035 -0.40330772216803112 7.424884038582082 -2.2387773270575919 3.8786941650885725 2.7497018949460177 2.6843851182234051 -0.20728141761525243 1.2348599129631408 0.73338760371096656 2.5195229073562246 -0.80751137748022817 -2.1017024855869604 3.3450326007228712 1.2465096631346371 -0.52492912504213318 -1.4841120795136498 1.4991197924144934 -0.12564880689305644 3.5720208894332934 2.7881089138296939 1.4465919847539861 -0.67014962179950011 1.4587372624448367 0.72071264887071518 0.1392515699615596 1.9847435477555011 1.667695180651469
leaf_weight=248 302 122 103 115 877 2167 340 152 154 353 100 147 1746 460 120 151 171 155 100 125 152 122 2092 110 117 346 218 104 170 201 407 954 110 168 917 123 243 123 231 103 138 168 377 248 192 282 155
leaf_count=248 302 122 103 115 877 2167 340 152 154 353 100 147 1746 460 120 151 171 155 100 125 152 122 2092 110 117 346 218 104 170 201 407 954 110 168 917 123 243 123 231 103 138 168 377 248 192 282 155
internal_value=0.0311188 3.64414 -1.15217 3.24196 0.228636 -1.85082 5.75779 2.2064 1.10451 0.882409 4.74091 9.2505 -2.06972 1.92357 2.68507 0.419466 1.47251 -1.67055 2.34878 4.2135 0.618683 5.43814 -1.83535 1.20061 4.41013 1.06386 1.54935 3.19954 -1.42055 3.63531 0.0425128 -2.6489 4.68628 0.226971 -0.96892 -0.19939 0.693486 1.7559 2.1882 1.20874 2.7832 0.539314 0.923956 0.0191745 1.72872 1.23907 2.5966
internal_weight=16779 4139 12640 4017 4247 8393 1170 2847 2453 2350 908 262 7655 2695 1428 738 490 4534 1308 808 2196 364 4131 1092 242 1267 807 444 2039 411 1104 3121 210 319 1794 293 461 897 595 226 369 697 529 403 739 474 265
internal_count=16779 4139 12640 4017 4247 8393 1170 2847 2453 2350 908 262 7655 2695 1428 738 490 4534 1308 808 2196 364 4131 1092 242 1267 807 444 2039 411 1104 3121 210 319 1794 293 461 897 595 226 369 697 529 403 739 474 265
is_linear=0
shrinkage=0.05


Tree=3
num_leaves=48
num_cat=0
split_feature=222 219 222 222 101 106 79 101 221 106 220 219 66 222 138 222 66 141 138 143 105 141 219 139 221 105 222 146 70 222 156 150 150 68 68 101 221 192 109 141 222 105 101 69 222 67 108
split_gain=2.43996e+07 9.97279e+06 4.14711e+06 3.48759e+06 1.80563e+06 1.4328e+06 1.42995e+06 1.27593e+06 1.00402e+06 821223 716857 639573 622902 558282 543808 531628 528341 495494 470315 401203 393316 347935 343515 335855 310606 350586 283842 273070 246322 234349 221654 218891 200107 186846 184929 172402 153364 152191 126904 123217 194195 115113 114724 117329 111092 108824 107896
threshold=63.051000000000009 280.65500000000003 104.92500000000001 45.629100000000001 65.90000000000002 83.250000000000014 1.0000000180025095e-35 65.90000000000002 94.989200000000011 69.250000000000014 27.290800000000001 66.312050000000013 2.9450000000000007 36.38280000000001 0.18000000000000002 88.703550000000021 3.0150000000000001 1.0000000180025095e-35 0.18000000000000002 1.0000000180025095e-35 47.500000000000007 1.0000000180025095e-35 59.337600000000009 1.5000000000000002 84.335400000000007 37.500000000000007 27.810000000000006 1.0000000180025095e-35 109.81000000000002 54.598700000000008 2.5750000000000006 526.3665000000002 445.0415000000001 145.31500000000003 72.060000000000016 71.90000000000002 64.609900000000025 0.65500000000000014 23.000000000000004 1.0000000180025095e-35 17.112450000000003 41.250000000000007 81.950000000000017 93.510000000000005 26.432500000000001 2.8450000000000002 14.500000000000002
decision_type=2 2 2 2 2 2 2 2 2 2 2 2 2 2 2 2 2 2 2 2 2 2 2 2 2 2 2 2 2 2 2 2 2 2 2 2 2 2 2 2 2 2 2 2 2 2 2
left_child=3 2 7 4 11 8 9 10 28 16 -2 26 -10 27 22 33 -5 -11 24 -13 29 -15 32 -24 -7 -26 -1 37 -4 36 -17 -25 -9 -16 -28 -23 -19 39 -35 40 -6 -34 -31 -44 -29 -22 -36
right_child=1 -3 5 6 13 18 -8 14 12 17 -12 19 -14 21 15 30 -18 20 -20 -21 45 35 23 31 25 -27 34 44 -30 42 -32 -33 41 38 46 -37 -38 -39 -40 -41 -42 -43 43 -45 -46 -47 -48
leaf_value=-1.8696880948178625 2.4324625289353143 18.344858373857679 3.53400743847308 1.5129754537930253 -2.7357937071905143 1.3045101540044728 -1.0256476511455461 -0.12076138362438733 6.9613671010083493 3.6114105317655665 7.4791793269999083 4.7805204623986866 12.467845401844057 1.0044552981803481 1.3370935958282542 3.2132982212644401 6.3290497821405403 0.063949945535469843 5.9665979720535081 0.59209969650615346 0.58814848514570706 0.18105021453883552 3.8200052516973892 0.91288180923618301 6.317191232272557 2.6915079538555196 -1.2023518328313474 -2.9192420897366036 6.7482333784197071 3.4854556492680597 6.108386839246287 3.2493846222132192 2.5960761781987247 1.619492857933529 0.13726763312112203 -1.5967767094443222 2.2096633603467661 -0.332446990384684 3.762967133522034 -2.2102333176631381 -0.88399678876712218 0.47505097463158252 2.4416547495087513 0.33707367692361861 -2.2759875846884854 -0.74266402433490641 2.2791707716998646
leaf_weight=195 136 104 114 121 197 172 1537 656 100 129 148 120 118 148 668 201 108 454 190 109 206 145 156 647 104 191 107 1345 135 104 102 118 126 122 109 2239 101 153 166 1573 503 130 151 118 1404 596 127
leaf_count=195 136 104 114 121 197 172 1537 656 100 129 148 120 118 148 668 201 108 454 190 109 206 145 156 647 104 191 107 1345 135 104 102 118 126 122 109 2239 101 153 166 1573 503 130 151 118 1404 596 127
internal_value=0.012374 3.1099 2.75381 -1.16648 -1.72165 5.38339 0.131429 1.87699 7.50201 0.983249 5.07946 0.591269 9.98526 -1.95188 1.58129 2.38125 3.80195 0.634171 3.86835 2.79815 0.410211 -1.34255 1.03084 1.71146 3.00375 3.98674 -0.351539 -2.24969 5.29668 1.11055 4.20477 1.27706 0.34238 1.79951 0.514475 -1.48861 0.457703 -1.86128 2.86371 -1.964 -1.4083 1.52503 2.07812 1.52312 -2.59166 -0.400528 1.29466
internal_weight=16703 4604 4500 12099 8474 1124 3625 3376 467 2088 284 767 218 7707 3092 1259 229 1859 657 229 1730 2532 1833 921 467 295 538 5175 249 928 303 765 912 956 343 2384 555 2426 288 2273 700 256 373 269 2749 802 236
internal_count=16703 4604 4500 12099 8474 1124 3625 3376 467 2088 284 767 218 7707 3092 1259 229 1859 657 229 1730 2532 1833 921 467 295 538 5175 249 928 303 765 912 956 343 2384 555 2426 288 2273 700 256 373 269 2749 802 236
is_linear=0
shrinkage=0.05


Tree=4
num_leaves=48
num_cat=0
split_feature=222 219 222 106 101 140 101 222 62 139 219 150 139 92 222 150 139 101 105 219 72 155 89 106 64 101 222 222 222 222 155 157 77 222 142 222 105 155 108 222 67 61 105 219 219 150 156
split_gain=2.20367e+07 7.31485e+06 4.81951e+06 2.0374e+06 1.92132e+06 1.58937e+06 2.3052e+06 1.3895e+06 748814 650518 643422 519427 476373 452381 440243 410966 397292 356408 352608 331496 309664 303466 242892 231657 230548 227878 234002 216143 189354 188004 183049 181277 179092 175420 214237 164017 159714 226345 209585 156921 162867 133007 147279 127047 124328 122700 119475
threshold=53.949900000000007 280.65500000000003 99.16340000000001 71.90000000000002 65.90000000000002 1.5000000000000002 72.15000000000002 37.071500000000007 156.50500000000002 1.5000000000000002 157.36200000000002 509.87700000000001 1.5000000000000002 1.0000000180025095e-35 28.498500000000003 308.04750000000007 1.5000000000000002 61.250000000000007 37.500000000000007 148.75720000000004 2.0250000000000004 159.36700000000005 1.0000000180025095e-35 78.230000000000018 0.57500000000000007 95.100000000000009 45.356000000000009 84.765000000000015 25.992000000000004 138.74800000000002 60.315000000000005 55.395000000000003 1.0000000180025095e-35 69.833500000000015 1.0000000180025095e-35 26.432500000000001 59.000000000000007 103.65500000000002 9.5000000000000018 87.671000000000021 2.9550000000000005 2002.5000000000002 37.500000000000007 24.528200000000002 58.800400000000003 305.77950000000004 2.5150000000000001
decision_type=2 2 2 2 2 2 2 2 2 2 2 2 2 2 2 2 2 2 2 2 2 2 2 2 2 2 2 2 2 2 2 2 2 2 2 2 2 2 2 2 2 2 2 2 2 2 2
left_child=4 2 5 20 10 8 -7 19 12 11 14 45 24 23 -1 -8 21 43 32 22 -4 41 35 -9 27 26 -25 31 -24 -20 -19 -2 -11 34 -14 -6 38 -38 -18 40 -39 42 -10 -16 -28 -5 -27
right_child=1 -3 3 9 7 6 15 13 16 18 -12 -13 33 -15 17 -17 36 30 29 -21 -22 -23 28 25 -26 46 44 -29 -30 -31 -32 -33 -34 -35 -36 -37 37 39 -40 -41 -42 -43 -44 -45 -46 -47 -48
leaf_value=-1.4664704148680712 0.47205045778113741 15.504480284635122 11.022651763172711 2.840487313270569 -2.7340293778484748 10.550189052628619 -0.31261252810985879 1.1648968194969571 4.1419003192026906 2.9284310737031483 4.5145517932558521 7.8696617971457874 0.75840041847481077 -1.4667556093043155 1.0160725407081077 3.8508590057247973 0.8820978801542273 -1.3157992700605017 1.160667478002555 0.29592522250281439 7.2922970877753359 5.2650227504917702 -1.9779232363927286 -1.3960284979326323 2.8759582578142489 1.6435494513156579 0.17882156633031676 2.7368510585231118 -0.42163923628070732 3.6745079869733139 1.1675116648345158 1.8286226955289022 5.60672954416275 0.78545019257184212 -1.0570799150730095 -2.1058099779170822 -0.97484654433338358 3.4862764450301116 3.1986620134646353 -0.21123485665455044 0.89981183901429174 1.2570337092947392 2.1210764033187712 3.2963966485710792 -1.2297247338517805 4.9409336482090929 -0.54095476235334694
leaf_weight=241 1074 103 101 119 1846 111 115 207 156 134 102 137 226 2027 100 121 191 151 281 134 152 116 590 836 179 157 584 157 293 101 144 319 124 360 572 2450 140 112 201 106 134 167 223 161 213 188 103
leaf_count=241 1074 103 101 119 1846 111 115 207 156 134 102 137 226 2027 100 121 191 151 281 134 152 116 590 836 179 157 584 157 293 101 144 319 124 360 572 2450 140 112 201 106 134 167 223 161 213 188 103
internal_value=0.00234956 2.35377 2.12984 4.78253 -1.41237 1.38701 4.64127 -1.6227 1.13129 3.83318 0.7956 5.30496 0.655369 -0.934081 0.314588 1.82929 2.01904 1.08784 2.80544 -2.15733 8.81902 2.94508 -2.22085 -0.41947 1.18076 -0.593244 -0.812134 0.98326 -1.46257 1.83318 -0.103758 0.783797 4.23235 -0.129424 -0.542616 -2.37633 1.32301 0.720828 2.07504 1.3961 2.08674 2.44348 2.96158 2.42992 -0.198685 4.13862 0.779393
internal_weight=16559 6220 6117 1337 10339 4780 347 9440 4433 1084 899 444 2887 4127 797 236 1546 556 640 5313 253 662 5179 2100 1729 1893 1633 1550 883 382 295 1393 258 1158 798 4296 884 492 392 352 246 546 379 261 797 307 260
internal_count=16559 6220 6117 1337 10339 4780 347 9440 4433 1084 899 444 2887 4127 797 236 1546 556 640 5313 253 662 5179 2100 1729 1893 1633 1550 883 382 295 1393 258 1158 798 4296 884 492 392 352 246 546 379 261 797 307 260
is_linear=0
shrinkage=0.05


Tree=5
num_leaves=48
num_cat=0
split_feature=222 222 221 101 138 101 141 101 220 139 156 222 68 222 101 69 150 222 69 109 220 222 220 62 61 222 101 222 141 101 169 222 62 157 219 219 101 101 138 221 156 219 109 222 63 220 101
split_gain=1.95212e+07 5.55503e+06 2.47389e+06 2.43865e+06 1.66394e+06 1.36098e+06 1.17979e+06 1.09088e+06 1.00512e+06 765274 622494 608914 519584 503514 557410 487531 421400 401409 336050 329475 276573 358854 256270 297449 241959 218602 205621 199829 245244 187858 187047 168373 166925 164518 167906 158119 155538 119677 116944 112088 111434 101919 100866 99781.8 97944.8 97254.3 81908.9
threshold=53.949900000000007 99.16340000000001 126.13420000000001 61.250000000000007 0.18000000000000002 71.90000000000002 1.0000000180025095e-35 70.050000000000011 68.488750000000024 1.5000000000000002 2.5750000000000006 41.95300000000001 121.89500000000002 33.386000000000003 57.500000000000007 129.82000000000002 448.15600000000001 45.629100000000001 57.57500000000001 23.000000000000004 18.387000000000004 70.926000000000016 57.59490000000001 267.79500000000002 2002.5000000000002 69.833500000000015 79.050000000000011 28.498500000000003 1.0000000180025095e-35 92.050000000000011 13.463100000000003 65.736250000000027 129.50500000000002 96.975000000000009 73.268550000000019 55.287300000000009 94.450000000000017 79.65000000000002 0.18000000000000002 85.942400000000006 2.4550000000000005 30.864200000000004 23.000000000000004 36.62700000000001 1.0850000000000002 24.000300000000003 94.700000000000003
decision_type=2 2 2 2 2 2 2 2 2 2 2 2 2 2 2 2 2 2 2 2 2 2 2 2 2 2 2 2 2 2 2 2 2 2 2 2 2 2 2 2 2 2 2 2 2 2 2
left_child=4 3 5 -2 11 15 -5 13 9 12 -10 27 31 41 -15 -3 25 30 -16 37 -21 -22 23 24 26 44 -7 -1 -29 35 -9 -8 42 34 -18 45 -27 -14 -28 -23 -20 -6 -19 -32 -11 -13 -45
right_child=1 2 -4 6 7 22 8 17 10 16 -12 29 19 14 18 -17 33 32 40 20 21 39 -24 -25 -26 36 38 28 -30 -31 43 -33 -34 -35 -36 -37 -38 -39 -40 -41 -42 -43 -44 46 -46 -47 -48
leaf_value=-2.5180760333928625 8.4584887006525271 5.2825210399154967 10.359690359333603 5.8071893836357704 -1.1448037171220207 4.6882228679106204 0.39377918777116128 0.65628557559606193 1.991745124614402 -0.89691045761596677 7.0670546692467866 -1.1596911836203776 0.23977997543027738 4.279181304762635 -0.84759589575272243 10.037956854863602 1.5675638023803669 0.531188799738884 0.58296236239447452 1.4814026780120315 2.1297607115819943 4.1909286610131131 5.2004952078755906 5.4793829563622163 1.0186648558364826 0.79351616686594395 1.8983098349052736 0.56613616503701347 -1.9592128344328104 0.10937667634688604 -1.6862817979621356 1.4759839728816191 1.7953198473561895 3.0899168011214999 -0.81188899116350877 -2.2505580022751568 -1.319189423742225 2.0722346059878669 3.5688807615905667 6.6490911949791158 2.6780899898480559 0.3123065737043989 -0.83359314121835215 -1.2011335327165737 0.75452920250815925 0.41394686989062895 0.24392061192999806
leaf_weight=2192 117 115 180 133 248 157 743 110 145 823 104 949 148 157 180 109 280 214 100 145 140 102 157 106 177 566 268 100 2257 286 1545 697 109 116 100 331 102 224 177 101 176 231 365 726 100 109 113
leaf_count=2192 117 115 180 133 248 157 743 110 145 823 104 949 148 157 180 109 280 214 100 145 140 102 157 106 177 566 268 100 2257 286 1545 697 109 116 100 331 102 224 177 101 176 231 365 726 100 109 113
internal_value=-0.029164 2.16326 4.88458 1.35706 -1.35163 4.09857 1.1811 -0.591806 1.04716 0.871205 4.13134 -1.87323 1.50006 0.771268 1.71921 7.63088 0.17778 -1.05968 0.830386 2.47205 3.32608 4.09933 3.33264 2.99578 2.65124 -0.219095 3.12877 -2.17338 -1.85188 -1.05726 -1.35453 0.918257 0.00957284 1.4487 0.940905 -1.29738 0.469428 1.34579 2.5693 5.44055 1.92383 -0.442919 -0.32912 -1.44755 -0.717367 -0.99733 -1.00645
internal_weight=16830 6332 1446 4886 10498 1266 4769 4274 4636 4387 249 6224 2300 1092 613 224 2087 3182 456 860 488 343 1042 885 779 1591 602 4549 2357 1675 2494 1440 688 496 380 1389 668 372 445 203 276 479 579 2384 923 1058 839
internal_count=16830 6332 1446 4886 10498 1266 4769 4274 4636 4387 249 6224 2300 1092 613 224 2087 3182 456 860 488 343 1042 885 779 1591 602 4549 2357 1675 2494 1440 688 496 380 1389 668 372 445 203 276 479 579 2384 923 1058 839
is_linear=0
shrinkage=0.05


Tree=6
num_leaves=48
num_cat=0
split_feature=221 221 66 96 71 138 71 101 66 71 138 101 221 139 71 220 71 66 71 105 69 66 62 112 155 72 66 220 66 150 150 89 101 71 71 71 158 70 192 155 106 109 221 108 106 105 150
split_gain=1.33773e+07 7.01232e+06 2.50776e+06 2.40024e+06 1.99158e+06 1.42852e+06 1.35345e+06 1.14921e+06 876784 672285 704821 649845 530641 516427 495882 474291 464487 414508 361239 327621 286985 271684 262164 262092 229831 188027 184134 183907 183054 171787 158596 150858 143947 148672 143376 141657 141373 140526 137507 154393 133456 191019 131853 177671 120549 115260 114691
threshold=56.924500000000002 126.13420000000001 2.8650000000000007 1.0000000180025095e-35 30.830000000000002 0.18000000000000002 17.075000000000003 72.65000000000002 3.6950000000000007 16.995000000000001 1.0000000180025095e-35 57.500000000000007 40.021800000000006 1.5000000000000002 18.695000000000004 55.030700000000003 24.665000000000003 2.0050000000000003 47.130000000000003 37.500000000000007 133.48000000000005 2.6150000000000007 159.11500000000004 1.5000000000000002 100.49500000000002 2.0250000000000004 2.3950000000000005 39.464100000000009 3.2850000000000006 425.51950000000005 286.99450000000007 1.0000000180025095e-35 92.550000000000011 29.045000000000005 8.1950000000000021 11.755000000000001 1.9850000000000001 147.65000000000001 0.15500000000000003 70.00500000000001 70.050000000000011 23.000000000000004 95.978400000000008 12.500000000000002 85.140000000000015 50.500000000000007 456.08950000000004
decision_type=2 2 2 2 2 2 2 2 2 2 2 2 2 2 2 2 2 2 2 2 2 2 2 2 2 2 2 2 2 2 2 2 2 2 2 2 2 2 2 2 2 2 2 2 2 2 2
left_child=5 3 -3 4 8 14 11 20 9 30 26 12 -7 18 21 36 40 -16 25 22 -6 -1 38 24 -15 -9 46 29 35 -21 -2 -23 33 -19 -33 -13 -10 45 -12 -40 -8 -42 -26 -44 -32 -27 -11
right_child=1 2 -4 -5 7 6 16 13 15 10 19 28 -14 23 17 -17 -18 32 -20 27 -22 31 -24 -25 42 37 -28 -29 -30 -31 44 34 -34 -35 -36 -37 -38 -39 39 -41 41 -43 43 -45 -46 -47 -48
leaf_value=-2.2267109244674996 -1.619672215790362 5.6022605096526226 16.07030301483778 7.3724204567021232 3.9870182188871865 -0.44275371296065197 2.3719244000074027 4.0811577981083911 0.4761821209992233 -1.092759428239044 0.41563069052994256 -1.7843374591228987 3.8876969937015988 -0.15564423769005931 -1.8818594266026978 5.8154177344762363 3.7035916976630689 -0.71200681754052453 5.9261418636956007 -0.067839540141292773 7.6346795586744953 -1.6041862624776551 4.2207214976440772 3.4163601571284001 1.2093914680347893 2.589577409349106 0.47349363124960075 2.2768953629530193 0.05663681928741976 2.1359231076023559 0.3345691933080891 -1.6262244859627917 1.3166062578928373 1.1933313040370528 0.76830267450639189 -0.98074796519459895 2.7739130537193941 3.6176868069289938 0.87026500348691593 3.2257992132183384 1.514331079274416 -0.15476486052431632 4.1258980778632344 1.3407438255964763 -1.1014384105981117 0.37984316441597366 0.73456864203881789
leaf_weight=2387 332 131 103 166 106 174 110 175 113 407 119 953 118 231 662 103 159 938 109 394 119 1999 164 158 541 107 909 182 270 113 353 112 120 114 139 1304 165 100 107 203 283 432 107 125 248 131 108
leaf_count=2387 332 131 103 166 106 174 110 175 113 407 119 953 118 231 662 103 159 938 109 394 119 1999 164 158 541 107 909 182 270 113 353 112 120 114 139 1304 165 100 107 203 283 432 107 125 248 131 108
internal_value=-0.0081374 1.78047 10.2588 1.45863 1.2946 -1.12743 -0.358232 2.57972 0.651879 0.41254 0.811532 -0.915472 1.31452 2.15265 -1.57937 2.93078 1.23748 -0.882673 3.31518 1.66151 5.94147 -1.85467 2.52247 1.52804 1.22777 2.74997 0.0456852 0.917928 -1.17357 0.426572 -0.744295 -1.45916 -0.317163 -0.504598 -0.302385 -1.3207 1.845 2.05074 1.86495 2.41817 0.758281 0.507063 1.64085 2.63747 -0.258838 1.37997 -0.708872
internal_weight=16703 6429 234 6195 6029 10274 3803 2009 4020 3639 2706 2819 292 1784 6471 381 984 1834 622 1282 225 4637 593 1162 1004 513 1424 689 2527 507 933 2250 1172 1052 251 2257 278 338 429 310 825 715 773 232 601 238 515
internal_count=16703 6429 234 6195 6029 10274 3803 2009 4020 3639 2706 2819 292 1784 6471 381 984 1834 622 1282 225 4637 593 1162 1004 513 1424 689 2527 507 933 2250 1172 1052 251 2257 278 338 429 310 825 715 773 232 601 238 515
is_linear=0
shrinkage=0.05


Tree=7
num_leaves=48
num_cat=0
split_feature=222 220 222 222 101 79 140 101 221 64 108 222 105 138 105 221 222 221 140 106 219 222 61 62 222 219 101 221 64 113 106 69 68 222 68 168 64 105 221 150 219 68 138 101 155 145 150
split_gain=1.64638e+07 7.00141e+06 2.5689e+06 1.97184e+06 1.25912e+06 1.09874e+06 1.09165e+06 1.09016e+06 752269 658141 450954 435757 423178 357582 342918 326932 323546 292322 285962 227791 227457 210360 231133 208779 229000 206994 192428 253436 173017 171899 164793 163619 161023 160195 182872 159500 148652 147466 185850 143042 120285 125478 104395 100754 98291.8 110029 98230.7
threshold=63.051000000000009 109.86910000000002 45.629100000000001 104.92500000000001 86.050000000000011 1.0000000180025095e-35 2.5000000000000004 65.90000000000002 116.50230000000001 0.67500000000000016 2.5000000000000004 26.661500000000004 41.250000000000007 0.18000000000000002 50.500000000000007 88.621750000000006 28.982500000000005 93.295100000000005 2.5000000000000004 94.15000000000002 161.93550000000002 52.802850000000007 1977.5000000000002 262.39500000000004 97.621000000000024 47.453500000000012 57.500000000000007 40.222500000000004 0.40500000000000008 1.0000000180025095e-35 77.950000000000017 60.565000000000005 117.00500000000001 74.42325000000001 155.29000000000005 5.5000000000000009 0.23500000000000001 41.250000000000007 53.39735000000001 385.31350000000003 56.075900000000011 97.50500000000001 0.18000000000000002 83.250000000000014 114.58000000000001 1.0000000180025095e-35 301.29300000000006
decision_type=2 2 2 2 2 2 2 2 2 2 2 2 2 2 2 2 2 2 2 2 2 2 2 2 2 2 2 2 2 2 2 2 2 2 2 2 2 2 2 2 2 2 2 2 2 2 2
left_child=2 3 7 6 8 9 10 16 14 13 25 -9 15 29 35 28 -1 -16 20 -6 42 30 -23 24 44 -2 27 -18 32 39 -15 -28 -12 34 -34 -5 -17 38 -24 -4 41 -32 -13 -35 45 -14 -27
right_child=1 -3 5 4 19 -7 -8 11 -10 -11 12 18 23 21 17 36 26 -19 -20 -21 -22 22 37 -25 -26 46 31 -29 -30 -31 40 -33 33 43 -36 -37 -38 -39 -40 -41 -42 -43 -44 -45 -46 -47 -48
leaf_value=-0.98947394953615841 -1.6330520995218181 13.633904858602996 -0.031716166161573849 7.3356993942085751 1.0222040261572058 -0.87374311016618911 5.3493664632403792 -2.1633248460969536 8.6610947991661043 4.1291534792914479 0.87781711757054615 -1.6682894890600672 0.51310268513988022 2.0898157548904419 1.8213451339560711 2.3280206184761201 0.59039836452695826 5.0373548236534456 0.50622901801530484 3.4365633497051165 0.61233500057097645 -0.20302964395230957 1.7767100414474504 3.1549375824839156 2.7927239425861057 1.9067313634432279 -1.1362500606243275 3.9856791160016694 3.5205363416843278 -0.87536536257208142 -0.34056245526846718 1.3661287186850966 1.8060446213617505 2.6798733701308568 4.7994097099000337 4.7098854315442011 4.818986713886261 1.3891882782981715 4.4579336447151086 1.9053617559870084 -1.4859719964174125 1.8397426171987146 -1.176913719547916 0.69269831158306416 1.1149453774972591 -1.2031212842255308 0.036199387880514293
leaf_weight=284 144 137 324 108 274 1556 182 2572 138 144 405 3094 516 119 156 101 115 131 196 152 131 110 130 106 136 103 120 105 138 404 169 141 106 101 101 147 159 227 132 134 103 107 1682 173 558 113 216
leaf_count=284 144 137 324 108 274 1556 182 2572 138 144 405 3094 516 119 156 101 115 131 196 152 131 110 130 106 136 103 120 105 138 404 169 141 106 101 101 147 159 227 132 134 103 107 1682 173 558 113 216
internal_value=-0.00515864 2.54032 -0.973283 2.19688 4.0274 0.133221 1.59296 -1.45295 5.36186 0.87833 1.37609 -1.63233 1.62213 0.637387 4.50743 2.28086 0.346569 3.30167 -1.36433 1.8897 -1.43913 1.23578 1.86642 1.02906 0.856477 -0.0660285 1.13583 2.22158 1.87552 -0.124689 0.475017 0.215664 1.61562 2.23374 3.28263 5.84631 3.86397 2.33141 3.13937 0.537944 -0.0361697 0.508291 -1.49552 1.43228 0.632469 0.203362 0.644235
internal_weight=16700 4601 12099 4464 1106 3659 3358 8440 680 2103 3176 7675 2713 1959 542 1284 765 287 5103 426 4907 1097 599 1429 1323 463 481 220 1024 862 498 261 886 481 207 255 260 489 262 458 379 276 4776 274 1187 629 319
internal_count=16700 4601 12099 4464 1106 3659 3358 8440 680 2103 3176 7675 2713 1959 542 1284 765 287 5103 426 4907 1097 599 1429 1323 463 481 220 1024 862 498 261 886 481 207 255 260 489 262 458 379 276 4776 274 1187 629 319
is_linear=0
shrinkage=0.05


Tree=8
num_leaves=48
num_cat=0
split_feature=222 222 101 101 138 69 101 92 220 222 64 222 220 222 156 68 90 101 76 222 101 219 155 220 219 70 221 168 101 150 220 222 101 101 157 103 222 114 222 71 69 139 72 222 222 89 222
split_gain=1.48746e+07 4.29897e+06 1.84487e+06 1.40903e+06 1.33041e+06 920914 919353 882232 859570 666785 621916 533325 489654 485727 314156 334867 308830 865381 553617 368689 428113 301382 295017 244818 234585 213039 201927 198368 196772 192479 470109 236108 190438 182277 168689 167559 164827 142332 136919 134927 132946 125674 118710 117050 116254 149405 111282
threshold=54.267800000000008 101.98900000000002 61.250000000000007 71.90000000000002 0.18000000000000002 129.82000000000002 61.250000000000007 1.0000000180025095e-35 71.027100000000019 27.152000000000005 0.45500000000000007 36.38280000000001 10.796000000000001 37.888850000000012 2.4850000000000008 183.97500000000002 1.0000000180025095e-35 171.99500000000003 1.0000000180025095e-35 84.765000000000015 78.950000000000017 47.453500000000012 59.275000000000013 27.62405 103.68800000000002 107.87500000000001 54.595100000000009 10.500000000000002 92.250000000000014 420.78450000000004 34.094150000000006 72.135950000000022 71.90000000000002 91.250000000000014 80.710000000000022 0.96950000000000014 68.282600000000016 2.5000000000000004 71.520700000000019 43.305000000000007 102.04500000000002 1.5000000000000002 3.7450000000000006 31.642000000000003 26.207750000000001 1.0000000180025095e-35 26.893800000000002
decision_type=2 2 2 2 2 2 2 2 2 2 2 2 2 2 2 2 2 2 2 2 2 2 2 2 2 2 2 2 2 2 2 2 2 2 2 2 2 2 2 2 2 2 2 2 2 2 2
left_child=4 2 -2 5 13 -3 9 8 16 -6 14 26 -11 44 34 35 17 18 -4 29 -21 -9 -13 -22 37 36 -8 -25 -15 41 31 40 -24 42 -5 39 -23 -17 -32 -16 -31 -18 -34 46 -1 -46 -28
right_child=1 3 7 10 6 -7 11 21 -10 12 -12 22 -14 28 15 24 19 -19 -20 20 23 25 32 27 -26 -27 43 -29 -30 30 38 -33 33 -35 -36 -37 -38 -39 -40 -41 -42 -43 -44 -45 45 -47 -48
leaf_value=-2.2568507698343021 7.3446670165731893 4.2425089889368328 2.2783457018567264 2.8695743842854529 -1.278955350782125 10.386793314052277 -1.5829167779152526 -0.72507102231840914 4.8995491505964948 1.3676627570102293 7.3421220577680151 -0.70066230758807091 5.4791877963145579 -1.2553940530069805 2.4505039588403954 5.4266360279947223 0.8352073223085178 -0.72169052123799371 6.7255114605192281 5.2285148386861771 0.16468836932697081 -0.21168752538208194 1.8377699098700568 1.30736095753445 6.9513687579720118 2.8561360243523475 -0.54769901877684557 3.9379942396283152 -0.046175042666623943 5.0179298017210172 -1.5069272361360155 1.1866280967603902 -0.8335460675684786 1.6474406235358297 0.45897437861708346 1.0507217931515962 1.1218701509143456 2.8067209000770865 0.98242250209504922 4.8765241709409981 2.5293179627324718 -0.20047136778691238 0.71267830682967714 -1.4940996925346555 -1.8208036487826413 -0.18702332930345286 1.6213779909373487
leaf_weight=1772 120 108 168 182 130 146 1489 613 183 185 103 1095 119 2038 141 100 944 132 121 101 175 476 209 156 107 100 138 134 403 102 110 166 361 152 121 102 450 116 109 101 121 424 188 127 1951 151 102
leaf_count=1772 120 108 168 182 130 146 1489 613 183 185 103 1095 119 2038 141 100 944 132 121 101 175 476 209 156 107 100 138 134 403 102 110 166 361 152 121 102 450 116 109 101 121 424 188 127 1951 151 102
internal_value=-0.00851846 1.93013 1.24657 4.45393 -1.1473 7.80115 -0.46824 1.09214 1.58205 1.71114 3.65506 -0.713595 2.9898 -1.609 3.25639 3.86351 1.37558 2.62931 4.15708 1.16698 2.29132 0.151381 -0.148047 1.6435 5.0223 0.675227 -1.32414 2.53225 -1.05586 0.843935 1.58356 2.62459 0.516951 0.121098 1.9116 2.76406 0.436881 4.03906 -0.269102 3.47892 3.68493 0.514296 -0.303723 -0.272753 -1.95717 -1.70358 0.377061
internal_weight=16842 6232 4905 1327 10610 254 4295 4785 3146 434 1073 3861 304 6315 970 667 2963 421 289 2542 566 1639 2005 465 323 1026 1856 290 2441 1976 608 389 910 701 303 344 926 216 219 242 223 1368 549 367 3874 2102 240
internal_count=16842 6232 4905 1327 10610 254 4295 4785 3146 434 1073 3861 304 6315 970 667 2963 421 289 2542 566 1639 2005 465 323 1026 1856 290 2441 1976 608 389 910 701 303 344 926 216 219 242 223 1368 549 367 3874 2102 240
is_linear=0
shrinkage=0.05


Tree=9
num_leaves=48
num_cat=0
split_feature=222 220 222 140 66 221 106 141 101 221 138 155 106 220 106 222 105 222 141 220 68 66 150 112 105 71 155 114 66 157 219 101 108 192 72 146 71 133 220 65 219 222 138 155 72 72 221
split_gain=1.36481e+07 5.08635e+06 2.19116e+06 1.66071e+06 1.67754e+06 1.53252e+06 970357 868604 852154 725234 588744 538023 469055 423381 454113 369262 327144 571600 302476 262761 249480 238256 207471 188938 182506 185078 162544 137803 135928 135696 127358 126324 152833 165094 108978 108472 105002 102237 99799.2 95520.8 90147.8 100236 88105 166930 113465 85004 83803.4
threshold=64.35690000000001 121.13360000000002 45.356000000000009 1.5000000000000002 2.7450000000000006 90.755600000000015 86.050000000000011 1.0000000180025095e-35 65.90000000000002 113.62625000000001 0.18000000000000002 152.07000000000002 65.90000000000002 12.047500000000001 61.250000000000007 28.732250000000004 37.500000000000007 99.16340000000001 1.0000000180025095e-35 30.109950000000001 125.08500000000001 3.0150000000000001 310.55050000000006 1.5000000000000002 37.500000000000007 35.135000000000012 161.69500000000002 2.5000000000000004 2.5550000000000002 40.655000000000008 110.71490000000001 92.550000000000011 2.5000000000000004 0.40500000000000008 1.8650000000000004 1.0000000180025095e-35 19.465000000000003 85.500000000000014 53.937500000000007 0.70500000000000007 55.646750000000004 54.853400000000001 0.18000000000000002 107.89000000000001 1.8550000000000002 3.8150000000000004 76.217550000000017
decision_type=2 2 2 2 2 2 2 2 2 2 2 2 2 2 2 2 2 2 2 2 2 2 2 2 2 2 2 2 2 2 2 2 2 2 2 2 2 2 2 2 2 2 2 2 2 2 2
left_child=2 3 8 5 22 16 9 -4 13 24 38 -11 21 28 -15 35 17 31 27 -19 36 -12 -5 -20 -7 -26 30 -17 -1 -30 42 32 -2 -34 -8 37 -14 -10 40 -16 -9 -42 43 -18 -44 -22 -45
right_child=1 -3 7 4 -6 6 34 10 15 11 12 -13 20 14 39 18 26 19 23 -21 45 -23 -24 -25 25 -27 -28 -29 29 -31 -32 -33 33 -35 -36 -37 -38 -39 -40 -41 41 -43 44 46 -46 -47 -48
leaf_value=-2.1596139359374007 0.092360487432111046 13.107838272386127 3.7716994804941169 1.1002278730769952 9.3407506114558174 4.5215864922869855 2.7044266671206043 -0.43196905354072523 -0.2144445310579613 8.8684026487057022 1.1634421085367108 4.0023158581457414 -0.31048009923169972 4.2177417280399698 1.3260388301667714 -0.66576970687008796 -0.74685667400691502 2.3939829995520685 -1.3624561808644819 5.6852789754580177 1.0237077052488268 4.5812817980658336 4.0844949296836202 0.31833364772796635 1.334742161166516 3.768276966447011 2.4389590522699187 1.4634901290759446 -1.0555638609298816 0.98313992590131893 1.8041797805363968 -0.36643091271408895 1.4107812687821655 3.5088383805209946 0.87872795352447941 -2.1674036500934295 0.7076852474361659 -1.7024336208264164 0.95950591677781372 -0.82265618840853372 -1.8250299684145823 -0.52979584629935628 1.8756479735359735 1.7899141618447711 0.25402619735552717 2.8808946431261826 0.010901446107530246
leaf_weight=118 180 107 156 119 151 200 112 1397 127 129 100 106 728 112 104 160 392 138 4072 111 158 105 115 174 156 159 113 143 191 141 156 112 666 109 302 1672 387 1302 100 101 293 306 161 128 324 102 136
leaf_count=118 180 107 156 119 151 200 112 1397 127 129 100 106 728 112 104 160 392 138 4072 111 158 105 115 174 156 159 113 143 191 141 156 112 666 109 302 1672 387 1302 100 101 293 306 161 128 324 102 136
internal_value=-0.00475842 2.38968 -0.861478 2.11841 5.24773 1.80742 3.32559 0.12962 -1.31266 4.39741 -0.0259238 6.69975 0.702636 0.275874 1.67273 -1.47194 1.15819 1.72497 -1.18462 3.87806 0.369 2.92778 2.57799 -1.29352 3.33589 2.57114 0.628341 0.340637 -0.70966 -0.189377 0.468835 1.21936 1.40552 1.71 1.37796 -1.8929 0.0432275 -1.57043 -0.575197 0.268559 -0.652528 -1.16534 0.284843 -0.0930323 0.795089 1.76054 0.876953
internal_weight=16631 4382 12249 4275 385 3890 1164 3832 8417 750 3676 235 1580 767 317 7650 2726 1316 4549 249 1375 205 234 4246 515 315 1410 303 450 332 1297 1067 955 775 414 3101 1115 1429 2096 205 1996 599 1141 656 485 260 264
internal_count=16631 4382 12249 4275 385 3890 1164 3832 8417 750 3676 235 1580 767 317 7650 2726 1316 4549 249 1375 205 234 4246 515 315 1410 303 450 332 1297 1067 955 775 414 3101 1115 1429 2096 205 1996 599 1141 656 485 260 264
is_linear=0
shrinkage=0.05


Tree=10
num_leaves=48
num_cat=0
split_feature=222 219 222 101 140 65 139 222 220 221 92 220 92 106 150 106 68 221 150 219 222 105 220 222 220 141 222 157 101 139 222 219 220 221 221 155 108 141 61 222 222 158 157 139 219 222 156
split_gain=1.17708e+07 3.43007e+06 2.19143e+06 1.2297e+06 1.17243e+06 1.65625e+06 924618 897630 760609 544108 535319 490501 408694 343772 426253 340338 349199 288522 275223 274379 271924 271458 247663 259681 243861 280865 237597 226154 194778 192626 239898 187493 173552 162706 143315 142782 137342 135413 134951 120956 113085 111802 106846 99206.7 93152.1 133488 92173.5
threshold=53.949900000000007 280.65500000000003 103.38850000000001 61.250000000000007 1.5000000000000002 0.48500000000000004 1.5000000000000002 37.28860000000001 11.715100000000001 89.439650000000015 1.0000000180025095e-35 76.517500000000013 1.0000000180025095e-35 97.950000000000017 418.45850000000002 75.450000000000017 169.62000000000003 101.47730000000001 308.04750000000007 47.453500000000012 151.41590000000002 59.000000000000007 43.408800000000006 76.413500000000013 60.341100000000004 1.0000000180025095e-35 64.35690000000001 40.655000000000008 79.450000000000017 1.5000000000000002 83.898800000000008 105.35400000000003 29.069650000000006 79.967850000000013 89.439650000000015 58.415000000000006 5.5000000000000009 1.0000000180025095e-35 1970.5000000000002 18.006500000000006 28.071000000000002 2.4250000000000003 30.815000000000005 1.5000000000000002 57.321050000000007 46.451900000000002 2.4650000000000003
decision_type=2 2 2 2 2 2 2 2 2 2 2 2 2 2 2 2 2 2 2 2 2 2 2 2 2 2 2 2 2 2 2 2 2 2 2 2 2 2 2 2 2 2 2 2 2 2 2
left_child=3 2 4 8 10 18 9 31 27 33 11 13 24 14 29 -11 -17 22 -6 -12 21 34 23 32 25 35 -21 -1 38 30 42 37 -16 -4 -8 -9 -28 39 -27 -5 -39 -25 46 -38 45 -40 -2
right_child=1 -3 6 7 5 -7 20 12 -10 15 19 -13 -14 -15 17 16 -18 -19 -20 26 -22 -23 -24 41 -26 28 36 -29 -30 -31 -32 -33 -34 -35 -36 -37 43 40 44 -41 -42 -43 -44 -45 -46 -47 -48
leaf_value=-1.1562563033943827 -1.1881797225578972 10.417296082694252 4.1282470986340192 -1.937062440705702 -0.26255906582982452 9.1943861697483982 1.5002976315201453 0.046387197764581251 4.3475384596147038 8.2404994449874227 -0.72056706236536006 4.2649725574118493 -1.1405192344291535 3.7410111080762771 3.7002764472274281 2.8296932402646768 6.9532867527008051 3.99201568533545 3.0684856476832412 -0.29883153981802574 4.2445245945662782 0.40358650433852922 -0.15094880977306854 2.0005486721158148 2.0105292789515903 1.7805263990062778 0.3623291125983224 1.4453525678705681 -0.81052351296402336 -0.18522862525366476 2.5120109841528566 -0.50937872102841197 1.1962177891941632 1.5500219832924964 4.1229592165100248 2.6181187709086928 2.8386357022743476 -1.9991591063519032 -0.57164325080811984 -0.55466594290832472 -1.4982369461017857 0.019875770543109288 1.0871812666164569 1.1692577086489748 -1.4394833268471137 1.2543261302439548 0.45370220949610429
leaf_weight=175 114 110 159 236 107 102 105 101 151 128 587 130 2007 120 228 105 104 137 146 418 113 253 175 125 121 117 265 158 1352 586 197 385 101 102 106 115 151 2328 223 480 2228 164 519 221 102 180 332
leaf_count=175 114 110 159 236 107 102 105 101 151 128 587 130 2007 120 228 105 104 137 146 418 113 253 175 125 121 117 265 158 1352 586 197 385 101 102 106 115 151 2328 223 480 2228 164 519 221 102 180 332
internal_value=-0.0185957 1.70556 1.54678 -1.04237 1.08346 3.84756 3.48624 -1.16183 1.41677 4.8635 0.867946 1.27308 -0.618723 1.1326 1.01436 6.19251 4.90496 1.87869 1.66422 0.145176 2.0529 1.51118 1.50902 1.97856 -0.165268 -0.286346 0.627099 0.0787723 -0.473832 0.553702 0.926186 -1.57619 2.93751 3.13043 2.83108 1.42135 1.23421 -1.65399 0.258138 -1.01238 -1.75458 0.880513 0.600183 1.85268 -0.0973949 0.245012 0.0323091
internal_weight=16669 6210 6100 10459 4925 355 1175 9975 484 598 4570 2928 4318 2798 2678 337 209 930 253 1642 577 464 793 618 2311 2190 1055 333 1974 1748 1162 5657 329 261 211 216 637 5272 622 716 4556 289 965 372 505 403 446
internal_count=16669 6210 6100 10459 4925 355 1175 9975 484 598 4570 2928 4318 2798 2678 337 209 930 253 1642 577 464 793 618 2311 2190 1055 333 1974 1748 1162 5657 329 261 211 216 637 5272 622 716 4556 289 965 372 505 403 446
is_linear=0
shrinkage=0.05


Tree=11
num_leaves=48
num_cat=0
split_feature=222 61 222 222 92 101 220 64 101 101 62 156 222 101 221 133 141 101 222 139 150 221 61 150 77 62 220 219 141 89 61 108 101 108 222 221 61 68 150 65 222 138 72 139 68 219 158
split_gain=1.21298e+07 5.91803e+06 2.10226e+06 1.75926e+06 852198 816218 829052 808397 781678 728674 559749 338302 316605 470185 436998 309907 307636 269529 256400 231554 230301 258221 250082 228867 222795 196367 195199 330958 186597 171444 153002 198218 140620 120935 152556 114532 109854 108483 105704 104914 101155 85896.1 145551 83077.9 80833.4 79418 78591.6
threshold=66.76900000000002 1923.5000000000002 47.198000000000008 100.47115000000001 1.0000000180025095e-35 65.90000000000002 24.65465 0.69500000000000006 75.450000000000017 71.90000000000002 276.37000000000006 2.5750000000000006 29.258000000000006 61.250000000000007 48.048250000000003 92.500000000000014 1.0000000180025095e-35 86.550000000000011 37.888850000000012 1.5000000000000002 303.67950000000002 90.755600000000015 1975.5000000000002 420.78450000000004 1.0000000180025095e-35 100.48500000000001 27.844600000000003 69.224300000000014 1.0000000180025095e-35 1.0000000180025095e-35 1992.5000000000002 14.500000000000002 94.15000000000002 5.5000000000000009 70.926000000000016 44.437700000000007 1979.5000000000002 98.405000000000015 289.48800000000006 0.46500000000000002 26.207750000000001 0.47500000000000003 3.7350000000000008 1.5000000000000002 150.23500000000004 87.119800000000012 2.4850000000000008
decision_type=2 2 2 2 2 2 2 2 2 2 2 2 2 2 2 2 2 2 2 2 2 2 2 2 2 2 2 2 2 2 2 2 2 2 2 2 2 2 2 2 2 2 2 2 2 2 2
left_child=2 -2 9 5 7 6 -3 16 11 12 15 -5 -1 14 -14 -10 -4 30 29 24 38 22 -22 44 -18 -15 -23 -28 -20 40 -17 -32 -19 -24 -35 -31 45 39 -7 -38 -11 -30 -43 -6 -21 -26 -45
right_child=1 3 4 8 43 20 -8 -9 10 18 -12 -13 13 25 -16 17 19 32 28 23 21 26 33 -25 36 -27 27 -29 41 35 31 -33 -34 34 -36 -37 37 -39 -40 -41 -42 42 -44 46 -46 -47 -48
leaf_value=-1.1343208731067034 14.090869839418502 1.0234690896515708 2.9541846134769383 4.5305270875365009 -0.22268590147709327 1.619758769891718 7.2794750625888511 4.6959834274444878 4.5866871631412369 -1.9676776091448407 5.5384007881972055 8.1267643849054974 0.62027555019077329 -0.83174895582164776 4.9214885794290222 4.1943480465291207 3.0850380194470999 0.15018671317034604 0.82878143945967586 -0.43089552680986964 3.1555899355531207 0.86767417366911725 -0.1822145030211611 1.3859679398914944 0.45891613686446125 1.4515042307853701 5.2063822117863134 1.6323597855551144 -1.2706420986145579 -1.1198935353530013 0.37966799397094575 3.2305004447073706 2.3092261326659855 2.3483701596155444 0.74667090326857632 0.65035942110043132 -0.41912942874544074 1.441358753606893 0.086337250228885151 1.3373519509191245 -1.4795718211014615 -0.98185525041614241 0.6217249627321797 0.18084506576222587 -1.8867583552765295 -1.3174264251595678 -1.136640845991348
leaf_weight=404 104 102 133 192 700 135 110 130 133 1772 167 104 143 381 100 137 104 216 143 369 126 122 240 155 166 124 121 141 1381 830 101 154 115 187 720 102 211 482 648 141 2718 626 182 132 128 100 783
leaf_count=404 104 102 133 192 700 135 110 130 133 1772 167 104 143 381 100 137 104 216 143 369 126 122 240 155 166 124 121 141 1381 830 101 154 115 187 720 102 211 482 648 141 2718 626 182 132 128 100 783
internal_value=0.000840313 2.37272 -0.763954 2.06235 0.231855 1.31932 4.28845 0.891111 3.55417 -1.18144 2.89434 5.81718 -0.00806592 0.600935 2.40324 2.37264 0.640192 1.95958 -1.35575 0.472871 1.05969 1.39348 1.04921 -0.285777 0.883596 -0.269348 2.52908 3.29648 -0.916644 -1.5444 2.84548 2.10724 0.905002 0.81527 1.07912 -0.925664 0.672846 0.95476 0.352449 0.286256 -1.6726 -1.03099 -0.620331 -0.633154 -0.808882 -0.211315 -0.946587
internal_weight=16715 4075 12640 3971 3734 2652 212 2119 1319 8906 1023 296 1152 748 243 856 1989 723 7754 1856 2440 1657 1273 652 1204 505 384 262 2332 5422 392 255 331 1147 907 932 1100 834 783 352 4490 2189 808 1615 497 266 915
internal_count=16715 4075 12640 3971 3734 2652 212 2119 1319 8906 1023 296 1152 748 243 856 1989 723 7754 1856 2440 1657 1273 652 1204 505 384 262 2332 5422 392 255 331 1147 907 932 1100 834 783 352 4490 2189 808 1615 497 266 915
is_linear=0
shrinkage=0.05


Tree=12
num_leaves=48
num_cat=0
split_feature=222 219 222 222 106 101 101 92 220 138 105 220 221 106 141 70 191 101 64 105 222 141 221 150 71 62 71 222 89 105 70 71 219 219 139 222 134 221 150 107 64 221 220 133 222 114 219
split_gain=1.04308e+07 6.14676e+06 1.45555e+06 1.3896e+06 995084 761277 745918 700974 623052 466071 455897 444868 402576 354843 377172 324995 319240 316011 247669 202705 197836 224602 196329 191794 188893 180251 178715 168929 162856 157762 235647 150334 137485 136199 131822 130612 126757 120021 116698 114270 110699 129675 151755 101779 98082.6 95091.7 92468.4
threshold=63.942500000000003 280.65500000000003 103.38850000000001 42.14350000000001 71.90000000000002 65.90000000000002 57.500000000000007 1.0000000180025095e-35 8.804450000000001 0.18000000000000002 37.500000000000007 27.290800000000001 94.245850000000019 72.750000000000014 1.0000000180025095e-35 164.49000000000004 1.9150000000000003 86.550000000000011 0.40500000000000008 32.500000000000007 26.661500000000004 1.0000000180025095e-35 104.22670000000001 295.76450000000006 41.805000000000007 124.98500000000001 34.340000000000011 28.982500000000005 1.0000000180025095e-35 37.500000000000007 104.50500000000001 19.035000000000004 57.741600000000005 65.424000000000021 1.5000000000000002 79.901250000000019 1.5000000000000002 82.668200000000013 509.87700000000001 0.98450000000000004 0.21500000000000002 62.973300000000002 32.919250000000012 99.500000000000014 71.520700000000019 4.5000000000000009 72.31010000000002
decision_type=2 2 2 2 2 2 2 2 2 2 2 2 2 2 2 2 2 2 2 2 2 2 2 2 2 2 2 2 2 2 2 2 2 2 2 2 2 2 2 2 2 2 2 2 2 2 2
left_child=3 2 5 6 12 11 8 13 27 10 17 -2 -4 18 -15 24 20 -6 23 25 -8 -22 37 -5 28 -16 -17 -1 29 39 -31 -25 -21 36 -23 -35 -32 -11 46 40 44 -42 -43 -44 -7 -27 -12
right_child=1 -3 4 7 9 15 16 -9 -10 22 38 -13 -14 14 19 26 -18 -19 -20 32 21 34 -24 31 -26 45 -28 -29 -30 30 33 -33 -34 35 -36 -37 -38 -39 -40 -41 41 42 43 -45 -46 -47 -48
leaf_value=-1.5356173671421041 1.6330073193986288 14.086881104369576 3.9836939020798763 -0.78316741049289706 5.3277393648546685 1.9361679174319038 -1.6895607021552335 -0.7693264683380161 4.3475880995248124 4.4381569959755458 -1.0189277814380053 5.7221121212692125 8.3341913625345398 2.3048009428460348 -0.031705693950162345 4.3489567853306941 0.71009428784633299 1.7875013927618664 3.4658399866445224 -0.12675642485250227 0.18583169218897821 -0.93532916739788485 5.9368661662907281 2.7746648260951043 -0.91726310915417142 0.84953858401459559 1.5598914892254054 1.0824218272657717 2.7611183956518013 -0.24275937181681836 1.4919803677257655 0.32016440295857623 -1.3953076146543026 0.72033279362116387 -1.5098654661233666 3.1067088144796866 -0.33592847681962529 2.108196193540198 1.9850890023840799 0.49937415450391631 0.97708974799004999 3.8296562533903789 0.54868019690700609 2.7442853301763535 0.11043169108248248 2.6566083258921562 0.90269836451420016
leaf_weight=128 128 103 103 109 114 118 2587 2092 102 111 115 140 117 189 664 102 194 143 136 643 299 1930 102 144 143 267 134 117 117 608 184 110 319 101 2086 134 194 116 107 354 204 142 101 111 193 100 135
leaf_count=128 128 103 103 109 114 118 2587 2092 102 111 115 140 117 189 664 102 194 143 136 643 299 1930 102 144 143 267 134 117 117 608 184 110 319 101 2086 134 194 116 107 354 204 142 101 111 193 100 135
internal_value=0.00692562 2.07211 1.78584 -0.749539 3.3007 1.23579 -1.17654 -0.0835718 1.08458 2.58928 1.77081 3.78244 6.32461 0.451614 0.176222 1.00244 -1.28724 3.37244 1.65307 -0.0266901 -1.34348 -1.13565 4.10676 0.966253 0.846451 0.460184 2.7786 -0.286052 0.945252 0.857229 0.454623 1.71712 -0.548421 1.14559 -1.23406 2.08847 0.555436 3.26198 0.611623 1.25848 1.56678 1.98796 2.5661 1.70575 0.80714 1.34781 0.0182126
internal_weight=16690 4474 4371 12216 1163 3208 7443 4773 347 943 614 268 220 2681 2182 2940 7096 257 499 1993 6902 4315 329 363 2704 1031 236 245 2561 2444 1221 254 962 613 4016 235 378 227 357 1223 869 558 354 212 311 367 250
internal_count=16690 4474 4371 12216 1163 3208 7443 4773 347 943 614 268 220 2681 2182 2940 7096 257 499 1993 6902 4315 329 363 2704 1031 236 245 2561 2444 1221 254 962 613 4016 235 378 227 357 1223 869 558 354 212 311 367 250
is_linear=0
shrinkage=0.05


Tree=13
num_leaves=48
num_cat=0
split_feature=222 61 222 138 101 222 62 103 220 191 222 146 66 71 61 139 222 220 101 62 143 103 220 169 134 105 221 101 222 220 134 222 61 141 222 169 62 191 101 139 191 157 101 69 219 222 61
split_gain=1.00424e+07 5.3568e+06 1.44535e+06 1.27689e+06 814175 771315 576219 501435 483920 424182 400855 394327 477669 444302 376528 368591 333133 311081 262696 232918 229882 204410 200287 215206 174195 164956 166954 150625 145370 142560 142280 129855 159347 128047 204714 122951 120865 119542 105951 115876 103272 100595 97896.1 89118.4 101406 87795.8 86529.2
threshold=63.051000000000009 1915.5000000000002 113.18115000000002 0.18000000000000002 75.450000000000017 47.198000000000008 267.79500000000002 0.96950000000000014 85.435500000000019 1.8650000000000004 41.522000000000013 1.0000000180025095e-35 2.7650000000000001 43.305000000000007 1983.5000000000002 1.5000000000000002 88.703550000000021 42.016600000000004 65.90000000000002 91.790000000000006 1.0000000180025095e-35 0.95850000000000002 20.170400000000004 12.509950000000002 1.5000000000000002 37.500000000000007 63.664000000000009 78.950000000000017 36.38280000000001 51.728650000000009 1.5000000000000002 52.802850000000007 1977.5000000000002 1.0000000180025095e-35 24.255500000000005 16.855250000000002 159.11500000000004 0.58500000000000008 92.050000000000011 1.5000000000000002 0.31500000000000006 40.655000000000008 86.550000000000011 59.175000000000004 65.424000000000021 28.498500000000003 1991.5000000000002
decision_type=2 2 2 2 2 2 2 2 2 2 2 2 2 2 2 2 2 2 2 2 2 2 2 2 2 2 2 2 2 2 2 2 2 2 2 2 2 2 2 2 2 2 2 2 2 2 2
left_child=3 -2 6 10 14 9 8 20 15 18 33 12 24 -14 -4 16 21 -11 19 30 -7 27 -18 -24 -6 26 -17 37 -20 31 -5 -22 -33 34 -1 40 -25 -3 39 -12 -27 -32 -28 -30 -45 -35 -44
right_child=1 2 4 5 11 7 -8 -9 -10 17 38 -13 13 -15 -16 25 22 -19 28 -21 29 -23 23 36 -26 35 42 -29 43 -31 41 32 -34 45 -36 -37 -38 -39 -40 -41 -42 -43 46 44 -46 -47 -48
leaf_value=-1.528149135430479 13.386654275950818 -0.5108535083440634 8.2698771548700769 1.3361123835472835 2.9041610389530104 -0.52571174932136688 4.0934048121997284 3.4762585271333841 4.5104064459410997 -0.19951097589293754 -0.23050887157422184 0.59661110785969518 2.7141066247253285 6.5300010991560953 3.9976953481252382 0.12436597293534246 0.94080317881889641 3.6589180403416699 -1.1755861345313707 1.9405237771284121 -0.12837942440954733 3.0529393665189666 1.8375187931916654 3.081182563759032 0.0015869242129939619 -1.1899866466887861 2.4608263213512966 1.3525938997862204 -0.79154599121186975 2.7076825586337492 -1.4137156734642176 -0.56501514935257413 1.6639896071826419 -1.7931173973744692 0.84360577387637226 0.89726453674854822 5.5774248854948745 1.188334584236145 -0.0086176362841628319 -1.0520314668013568 0.16195748233525406 0.27847102822928593 -0.068197546763853589 0.58781503794999146 -1.0860824588745359 -1.3270086862959016 1.8851321582066811
leaf_weight=226 100 259 110 104 106 370 174 161 103 108 585 170 156 153 103 293 127 100 1602 155 283 122 155 104 100 237 205 708 687 102 223 100 395 1902 151 272 100 171 472 1618 347 144 109 320 125 2203 117
leaf_count=226 100 259 110 104 106 370 174 161 103 108 585 170 156 153 103 293 127 100 1602 155 283 122 155 104 100 237 205 708 687 102 223 100 395 1902 151 272 100 171 472 1618 347 144 109 320 125 2203 117
internal_value=0.00860544 1.99748 1.74152 -0.745518 3.53546 -0.130575 1.29355 0.858654 1.15032 -0.521906 -1.17324 2.68901 3.37721 4.6185 6.23232 1.04494 1.5455 1.66413 -0.657687 0.2659 0.518997 1.11505 2.65692 3.25971 1.50196 0.491167 1.04612 0.904794 -0.86918 0.958348 -0.28814 0.72582 1.21345 -1.46234 -0.57847 0.0211174 4.32607 0.166059 -0.688488 -0.834082 -0.387787 -0.750799 1.671 -0.4349 0.116238 -1.54336 0.946889
internal_weight=16737 4601 4501 12136 898 4979 3603 1411 3429 3568 7157 685 515 309 213 3326 1746 208 3360 626 1250 1260 486 359 206 1580 724 1138 2734 880 471 778 495 4482 377 856 204 430 2675 2203 584 367 431 1132 445 4105 226
internal_count=16737 4601 4501 12136 898 4979 3603 1411 3429 3568 7157 685 515 309 213 3326 1746 208 3360 626 1250 1260 486 359 206 1580 724 1138 2734 880 471 778 495 4482 377 856 204 430 2675 2203 584 367 431 1132 445 4105 226
is_linear=0
shrinkage=0.05


Tree=14
num_leaves=48
num_cat=0
split_feature=222 220 222 222 106 101 101 101 141 68 112 64 220 166 139 140 68 72 72 72 105 141 222 63 112 169 155 79 71 62 138 106 155 65 219 68 107 101 222 157 157 222 222 79 106 220 72
split_gain=8.64262e+06 3.94478e+06 1.3835e+06 1.17349e+06 703968 662208 531047 522181 508244 480060 429892 390130 344301 306211 303507 269003 227547 206708 185896 185869 182340 164321 173498 153480 152077 135897 161966 160717 176702 122060 209154 137714 116669 112772 212416 111173 109354 106949 103847 101313 95992.6 94474.1 92461 146302 142173 184303 90332
threshold=66.278800000000004 121.13360000000002 45.629100000000001 103.38850000000001 61.250000000000007 71.90000000000002 86.050000000000011 65.90000000000002 1.0000000180025095e-35 218.11500000000004 1.0000000180025095e-35 0.31500000000000006 13.358050000000002 1.0000000180025095e-35 1.5000000000000002 1.5000000000000002 145.31500000000003 3.6950000000000007 3.7650000000000001 3.5650000000000004 37.500000000000007 1.0000000180025095e-35 29.911000000000005 1.0850000000000002 1.5000000000000002 13.777750000000003 154.58000000000001 1.0000000180025095e-35 27.205000000000002 139.05500000000004 0.18000000000000002 82.050000000000011 135.81500000000003 0.40500000000000008 69.224300000000014 198.62500000000003 0.98450000000000004 92.350000000000009 57.446500000000007 39.625000000000007 94.585000000000022 120.23200000000001 62.100500000000004 1.0000000180025095e-35 83.050000000000011 38.305500000000002 2.0950000000000002
decision_type=2 2 2 2 2 2 2 2 2 2 2 2 2 2 2 2 2 2 2 2 2 2 2 2 2 2 2 2 2 2 2 2 2 2 2 2 2 2 2 2 2 2 2 2 2 2 2
left_child=2 3 5 7 -4 12 9 11 -6 10 -5 -2 -1 35 16 19 42 41 -18 -14 29 39 -23 -21 -24 26 40 28 -27 -9 33 -32 -19 -31 -35 46 37 38 -16 -7 -22 -12 43 44 45 -10 -8
right_child=1 -3 4 6 8 21 13 20 14 -11 17 -13 15 -15 36 -17 18 32 -20 23 25 22 24 -25 -26 27 -28 -29 -30 30 31 -33 -34 34 -36 -37 -38 -39 -40 -41 -42 -43 -44 -45 -46 -47 -48
leaf_value=-0.65807177700199093 1.6618606522463371 11.40443133863586 4.1572690604397886 1.3147695799932837 2.7974864855889354 -0.79304227909192138 0.45854768810688329 0.80206265444382652 0.68955872588210709 6.9790492900899643 4.0866034474121324 5.7756632818443947 1.8658020114344092 3.8802757902023117 -0.81965892610564228 3.0400079753165858 0.46683230328380615 1.9418515201307771 3.2681573437871756 0.90917715696519807 -0.56089839078874826 -1.5839949883220799 -1.1237833395008883 -1.7505714062986701 0.50287923269967238 2.884635113337461 1.7168973031475787 -0.058645389190939971 0.87071873107078401 0.20267869818605774 1.6715981977184615 3.990131194180456 4.2979719333719499 3.2328264925190631 0.50029804291117275 -0.41393334419902311 -0.96035842974695118 1.3555349398367476 0.53712925824146829 0.62717873902102705 1.0536568969226721 6.2301975172413284 -0.83358703018978564 -0.38580404941401097 0.030461084795683793 3.0325806062530591 2.4720115931207935
leaf_weight=615 137 107 103 187 154 704 105 489 381 106 108 100 132 116 447 132 132 116 107 101 478 2714 3668 115 149 169 126 214 307 180 119 144 100 135 150 108 981 100 205 152 113 120 234 610 538 107 119
leaf_count=615 137 107 103 187 154 704 105 489 381 106 108 100 132 116 447 132 132 116 107 101 478 2714 3668 115 149 169 126 214 307 180 119 144 100 135 150 108 981 100 205 152 113 120 234 610 538 107 119
internal_value=-0.00526442 1.9722 -0.658132 1.72 0.0961034 -1.02259 3.0427 1.17128 -0.00959019 3.86791 3.33507 3.41462 0.12479 1.67956 -0.122806 1.12712 0.27999 4.18109 1.72937 0.394904 0.967436 -1.19267 -1.27806 -0.508434 -1.06017 0.579157 0.0967862 1.07954 1.59029 1.41549 1.82586 2.95137 3.04743 1.18432 1.80143 0.901287 -0.612873 -0.158897 -0.392892 -0.540416 -0.250935 5.23709 0.0939227 0.227014 0.591381 1.20845 1.53443
internal_weight=16734 4153 12581 4046 4099 8482 1185 2861 3996 737 631 237 1095 448 3842 480 2109 444 239 348 2624 7387 6531 216 3817 1407 717 690 476 1217 728 263 216 465 285 332 1733 752 652 856 591 228 1870 1636 1026 488 224
internal_count=16734 4153 12581 4046 4099 8482 1185 2861 3996 737 631 237 1095 448 3842 480 2109 444 239 348 2624 7387 6531 216 3817 1407 717 690 476 1217 728 263 216 465 285 332 1733 752 652 856 591 228 1870 1636 1026 488 224
is_linear=0
shrinkage=0.05


Tree=15
num_leaves=48
num_cat=0
split_feature=222 219 222 140 106 79 219 101 112 139 222 222 222 101 221 220 150 62 155 101 221 101 105 220 101 63 219 222 105 106 64 133 68 69 222 113 65 89 220 142 62 155 105 113 221 139 222
split_gain=7.74643e+06 5.18301e+06 1.62272e+06 728617 954516 727072 862396 695767 495012 441051 425512 405765 312717 350043 421134 282561 271571 229518 229059 308852 220232 201406 200794 200762 257721 219614 194257 191143 182718 171141 161312 151247 137577 158601 161974 134709 132526 130948 126074 116112 114226 104488 100648 95004 94775.6 94141.6 88225.5
threshold=53.949900000000007 280.65500000000003 113.18115000000002 1.5000000000000002 69.250000000000014 1.0000000180025095e-35 137.74120000000002 70.050000000000011 1.0000000180025095e-35 1.5000000000000002 37.664500000000011 83.898800000000008 27.810000000000006 57.500000000000007 44.437700000000007 71.027100000000019 307.47400000000005 159.11500000000004 161.69500000000002 85.050000000000011 58.205250000000007 78.950000000000017 56.500000000000007 26.638500000000004 82.250000000000014 1.0050000000000001 53.821500000000007 90.962000000000003 37.500000000000007 92.050000000000011 0.69500000000000006 99.500000000000014 128.28500000000003 113.29000000000001 69.833500000000015 1.0000000180025095e-35 0.60500000000000009 1.0000000180025095e-35 38.305500000000002 1.0000000180025095e-35 207.35500000000005 103.65500000000002 47.500000000000007 1.0000000180025095e-35 82.668200000000013 1.5000000000000002 15.135000000000002
decision_type=2 2 2 2 2 2 2 2 2 2 2 2 2 2 2 2 2 2 2 2 2 2 2 2 2 2 2 2 2 2 2 2 2 2 2 2 2 2 2 2 2 2 2 2 2 2 2
left_child=7 2 3 9 -5 6 8 12 38 11 30 15 -1 14 -14 21 -6 39 19 -10 -15 28 35 24 -13 26 -25 41 -2 45 37 -22 42 34 -34 40 -31 -9 -4 43 -19 -24 -23 -11 -43 -12 -39
right_child=1 -3 5 4 16 -7 -8 10 18 17 29 23 13 20 -16 -17 -18 22 -20 -21 31 32 27 25 -26 -27 -28 -29 -30 36 -32 -33 33 -35 -36 -37 -38 46 -40 -41 -42 44 -44 -45 -46 -47 -48
leaf_value=-1.0530197788684788 0.69936729534420861 12.544773374483425 2.4903596199221081 6.9323507638664941 -0.4882980552102838 0.33006831501112432 8.1564286568618964 -1.417026711391941 6.6307672748694548 1.1500651475734416 -0.4551243965925571 2.6823690404354688 0.54799070393110261 -0.56361631215570529 4.5976792319937871 3.3533001115208578 2.8039773281533407 1.7647677990241288 2.2712888147067098 3.1765198205826715 -0.22222560624766158 1.1449483057583318 -0.49554112103947423 2.0114455666627968 -0.39003128172321755 0.96694647190617578 4.7136270526273369 -1.2289463274095251 -0.96555830452084968 0.52389735649158431 0.09882204144500023 2.022962980771188 3.4357217393169517 0.4939892905313264 0.99648788095816332 3.0877946868809789 -1.1883535254043298 -1.7744950127809802 0.062443344726740763 -0.55471157786708891 -0.10682627953015843 2.1771551323142546 0.010191589194749084 -0.45192282604895961 0.27493870110551188 -1.0084498365429211 -0.50698798189395688
leaf_weight=346 386 102 107 110 111 171 104 4262 147 225 1669 141 153 453 110 104 142 220 102 121 122 468 113 110 131 101 177 173 286 538 214 193 172 158 114 109 142 169 106 850 129 144 335 156 120 1429 722
leaf_count=346 386 102 107 110 111 171 104 4262 147 225 1669 141 153 453 110 104 142 220 102 121 122 468 113 110 131 101 177 173 286 538 214 193 172 158 114 109 142 169 106 850 129 144 335 156 120 1429 722
internal_value=0.0259952 1.42087 1.23416 0.906353 3.0653 3.24991 3.97514 -0.801946 3.21656 0.746539 -0.959704 1.1788 0.2457 0.682144 2.25278 0.826859 1.3633 0.228265 4.3203 5.08881 0.142054 0.688263 0.787324 2.25467 1.20664 2.98438 3.68853 0.142698 -0.00959895 -0.552976 -1.24586 1.15545 1.06404 1.76971 2.4703 1.55944 0.165119 -1.30171 1.28804 -0.229786 1.07465 0.773713 0.672146 0.494667 1.31681 -0.710597 -0.749122
internal_weight=16767 6245 6143 5285 363 858 687 10522 583 4922 9145 2683 1377 1031 263 2023 253 2239 370 268 768 1919 1008 660 272 388 287 550 672 3778 5367 315 1247 444 286 458 680 5153 213 1231 349 377 803 381 264 3098 891
internal_count=16767 6245 6143 5285 363 858 687 10522 583 4922 9145 2683 1377 1031 263 2023 253 2239 370 268 768 1919 1008 660 272 388 287 550 672 3778 5367 315 1247 444 286 458 680 5153 213 1231 349 377 803 381 264 3098 891
is_linear=0
shrinkage=0.05


Tree=16
num_leaves=48
num_cat=0
split_feature=219 222 222 141 140 106 139 140 222 219 150 106 222 222 69 150 69 105 138 219 157 101 219 77 168 168 64 70 219 222 65 92 158 219 61 219 105 62 70 157 64 68 69 108 169 106 222
split_gain=7.05401e+06 5.37704e+06 1.47249e+06 968587 733096 644448 634142 993880 557682 500852 453961 290124 270062 259949 250494 234824 229557 222983 257816 196591 185485 155751 163713 155272 159575 151027 145957 197393 129207 219125 148918 136716 159532 155808 120639 116703 115285 139431 113204 150841 112665 142074 151575 182764 110949 157472 108311
threshold=280.65500000000003 53.949900000000007 103.38850000000001 1.0000000180025095e-35 2.5000000000000004 71.90000000000002 1.5000000000000002 1.5000000000000002 35.091000000000008 105.35400000000003 598.05650000000003 71.90000000000002 84.765000000000015 25.992000000000004 57.57500000000001 441.13650000000007 130.86500000000004 37.500000000000007 0.18000000000000002 161.93550000000002 101.73 94.950000000000017 112.35255000000002 1.0000000180025095e-35 9.5000000000000018 64.500000000000014 0.20500000000000004 111.59000000000002 55.646750000000004 45.356000000000009 0.12500000000000003 1.0000000180025095e-35 2.6950000000000007 34.10025000000001 1991.5000000000002 72.31010000000002 32.500000000000007 96.565000000000012 66.295000000000016 40.655000000000008 0.40500000000000008 100.16500000000001 107.72500000000001 14.500000000000002 21.813400000000005 78.550000000000011 82.923000000000016
decision_type=2 2 2 2 2 2 2 2 2 2 2 2 2 2 2 2 2 2 2 2 2 2 2 2 2 2 2 2 2 2 2 2 2 2 2 2 2 2 2 2 2 2 2 2 2 2 2
left_child=1 4 3 -3 8 16 7 12 19 13 17 14 25 -6 -10 21 -4 23 -19 -1 35 22 -8 -7 -25 36 -14 -28 29 30 -13 32 33 -31 -27 46 37 -5 39 -15 41 -39 43 -43 45 -38 -17
right_child=-2 2 5 6 9 10 15 -9 11 -11 -12 28 26 38 -16 20 -18 18 -20 -21 -22 -23 -24 24 -26 34 27 -29 -30 31 -32 -33 -34 -35 -36 -37 44 40 -40 -41 -42 42 -44 -45 -46 -47 -48
leaf_value=-1.3368129290524657 11.711801302456298 4.7087505492809658 3.4777561741055183 -0.080572223038013494 -0.95533548131317447 1.4497531254730234 -0.35107974302136191 5.6323440769798738 -0.62277019905947872 3.814792661239895 5.2140474145657549 0.96412228598250993 0.6980773951326098 0.24183731889040275 1.5174741302943622 1.5629395482766684 6.8364658902738702 0.25502126373530154 2.5904751831746622 0.88650679564943502 2.7673116842714642 -1.70998873896069 1.2393614480302142 4.9998342046370876 2.1714262846638177 -1.4657992844780288 1.4109580342742531 3.8742244683542562 -1.1692321183159948 0.14153988848450363 -0.91950629870125644 -0.49423971957222695 -0.53087599624370074 2.1679546712606381 0.58319401955604555 -0.85722249835453113 -0.93064526061753972 0.24894220530169836 -0.4778978910154969 2.127501186920751 2.9605449144082634 1.2762309456683538 0.494891503536039 3.9215930064929831 1.8251432225092494 0.67262031127385769 -0.33749846167731706
leaf_weight=4545 127 147 105 167 333 142 1290 116 247 103 106 110 153 208 304 220 106 331 183 101 103 179 184 103 101 137 175 154 963 185 1983 617 211 194 149 127 221 227 130 216 114 141 143 123 118 493 113
leaf_count=4545 127 147 105 167 333 142 1290 116 247 103 106 110 153 208 304 220 106 331 183 101 103 179 184 103 101 137 175 154 963 185 1983 617 211 194 149 127 221 227 130 216 114 141 143 123 118 493 113
internal_value=0.0190354 -0.0710075 1.09918 0.72392 -0.762072 2.68943 0.602122 1.12684 -0.897545 0.532052 2.13857 -0.520238 0.916873 0.146988 0.558664 -0.0210867 5.18936 1.75389 1.08993 -1.2883 0.859948 -0.321499 -0.151839 2.73424 3.61692 0.66397 1.97999 2.57222 -0.659787 -0.510812 -0.820097 0.0257382 0.569428 1.18178 -0.400004 0.427788 0.838281 1.22538 0.810103 1.2052 1.51667 1.2528 1.8107 2.51888 0.411601 0.175764 0.918967
internal_weight=16748 16621 6171 4994 10450 1177 4847 2631 9460 990 966 4814 2515 887 551 2216 211 860 514 4646 563 1653 1474 346 204 2033 482 329 4263 3300 2093 1207 590 379 286 460 1747 915 554 424 748 634 407 264 832 714 333
internal_count=16748 16621 6171 4994 10450 1177 4847 2631 9460 990 966 4814 2515 887 551 2216 211 860 514 4646 563 1653 1474 346 204 2033 482 329 4263 3300 2093 1207 590 379 286 460 1747 915 554 424 748 634 407 264 832 714 333
is_linear=0
shrinkage=0.05


Tree=17
num_leaves=48
num_cat=0
split_feature=222 219 222 222 71 141 139 222 106 220 68 140 141 101 221 105 221 101 138 133 222 222 139 71 157 106 155 63 101 101 63 221 62 69 108 114 221 222 158 73 156 101 109 169 106 68 133
split_gain=6.98322e+06 5.32237e+06 1.17189e+06 1.1641e+06 908726 794831 769415 642213 629784 557499 429759 404026 354947 341129 311961 232377 343817 250946 217073 212271 190214 185752 185343 181475 165404 162768 148913 184736 166197 145748 131408 122142 121835 136412 147766 100155 129086 91981.4 91485.6 144748 90234.7 153454 89235.1 85309.8 174766 121541 90444
threshold=63.051000000000009 280.65500000000003 143.85690000000002 45.629100000000001 55.530000000000008 1.0000000180025095e-35 1.5000000000000002 83.898800000000008 70.050000000000011 45.650400000000012 195.94500000000002 2.5000000000000004 1.0000000180025095e-35 72.15000000000002 55.73040000000001 59.000000000000007 64.949150000000017 87.450000000000017 0.18000000000000002 96.500000000000014 89.733700000000013 29.258000000000006 1.5000000000000002 18.695000000000004 87.465000000000018 65.90000000000002 104.38500000000001 0.54500000000000015 85.450000000000017 65.90000000000002 1.7250000000000003 50.915900000000008 128.69500000000002 133.48000000000005 10.500000000000002 2.5000000000000004 69.860350000000025 22.800950000000004 2.6250000000000004 1.5000000000000002 2.5750000000000006 85.140000000000015 23.000000000000004 14.294450000000003 78.230000000000018 145.31500000000003 96.500000000000014
decision_type=2 2 2 2 2 2 2 2 2 2 2 2 2 2 2 2 2 2 2 2 2 2 2 2 2 2 2 2 2 2 2 2 2 2 2 2 2 2 2 2 2 2 2 2 2 2 2
left_child=3 2 5 11 -4 -2 7 29 9 23 13 18 -10 19 21 16 -8 24 37 -9 -15 -13 32 25 -18 -5 -17 28 -28 -7 -20 -31 42 34 -34 -24 -37 -1 39 -30 41 -22 -14 44 -33 -45 -46
right_child=1 -3 4 8 -6 6 15 10 12 -11 -12 14 22 20 -16 26 17 -19 30 -21 40 -23 35 -25 -26 -27 27 -29 38 31 -32 43 33 -35 -36 36 -38 -39 -40 -41 -42 -43 -44 45 46 -47 -48
leaf_value=-1.6212414969520665 5.3793117454807673 13.036454688027355 7.5975301272996507 3.0422310374153314 1.9237192498042415 2.3222804776692794 -0.32383788605194308 5.5029508850841884 2.3201768016064919 5.071341160663124 5.4481147846532245 -0.94084337448284505 0.45317234839067649 -0.2160911533210812 2.572944708665212 -1.0533897338910998 1.7324676106766899 0.6221640650406246 -0.76977511765757545 2.6196070649302925 2.726964788574751 0.61814369599727759 -1.1149247604572192 -0.33437092036911942 4.1143409237902393 0.43995550155639651 2.2318171292367412 -1.58987068013028 0.93410989385898979 -0.55902737655095602 0.54643422718186985 -1.3289613374389044 0.36091873007516068 -0.49470745585181497 2.8212582440603349 -0.51731500934177788 1.2889173167839385 -1.1103820031415963 1.05843699646772 -1.5092683521126 3.0931108700612495 0.4787477398443522 -0.44930041798393172 1.0092242184657934 2.2778474329600056 2.9464859618632886 0.52877705210357684
leaf_weight=1153 111 100 130 127 155 176 353 106 142 102 125 437 455 115 110 316 201 316 2427 168 146 338 614 164 116 114 126 110 106 148 205 100 119 109 125 748 113 3831 168 139 144 158 685 332 102 107 265
leaf_count=1153 111 100 130 127 155 176 353 106 142 102 125 437 455 115 110 316 201 316 2427 168 146 338 614 164 116 114 126 110 106 148 205 100 119 109 125 748 113 3831 168 139 144 158 685 332 102 107 265
internal_value=0.0338224 1.6833 1.43036 -0.597717 4.52929 1.22173 1.10907 1.75171 0.153551 1.78578 2.71901 -0.917347 -0.113027 2.30543 0.0937451 0.386523 0.925961 1.62234 -1.03484 3.75102 1.59649 -0.261003 -0.230183 0.947855 2.61427 1.81818 -0.165043 0.268451 0.649942 0.993573 -0.66709 0.769711 0.162515 0.972799 1.62771 -0.627514 -0.27904 -1.22887 0.163111 -0.452633 2.06122 1.56388 -0.0890215 0.987144 0.51506 1.48703 1.01976
internal_weight=16757 4639 4539 12118 285 4254 4143 2192 3617 507 962 8501 3110 837 885 1951 986 633 7616 274 563 775 2968 405 317 241 965 649 539 1230 2632 1054 1493 353 244 1475 861 4984 413 245 448 304 1140 906 467 439 367
internal_count=16757 4639 4539 12118 285 4254 4143 2192 3617 507 962 8501 3110 837 885 1951 986 633 7616 274 563 775 2968 405 317 241 965 649 539 1230 2632 1054 1493 353 244 1475 861 4984 413 245 448 304 1140 906 467 439 367
is_linear=0
shrinkage=0.05


Tree=18
num_leaves=48
num_cat=0
split_feature=222 61 101 138 150 64 107 221 222 68 103 101 222 220 101 71 155 165 72 105 63 168 220 219 105 138 221 221 69 90 222 89 221 222 107 70 222 67 71 70 101 105 146 72 150 169 155
split_gain=5.92662e+06 3.85649e+06 1.07974e+06 999216 796831 669084 916229 617711 594655 584839 525923 480826 406958 255149 218724 302025 216823 205508 190343 173581 173512 166385 151181 208145 170244 145740 263822 191161 275049 184957 136899 121875 119103 115914 115352 134211 114578 98610.1 101428 87043.9 114270 85876.2 139150 84749 129332 83191.3 81801.4
threshold=66.76900000000002 1923.5000000000002 65.90000000000002 0.18000000000000002 613.09150000000011 0.69500000000000006 0.98450000000000004 75.721750000000014 99.16340000000001 102.575 0.96950000000000014 71.90000000000002 45.356000000000009 59.084700000000005 61.250000000000007 13.275 164.79500000000004 1.0000000180025095e-35 2.5450000000000004 37.500000000000007 0.51500000000000012 9.5000000000000018 48.146900000000009 85.75800000000001 37.500000000000007 0.18000000000000002 79.967850000000013 82.668200000000013 159.26500000000001 1.0000000180025095e-35 56.507500000000007 1.0000000180025095e-35 57.304700000000004 77.813000000000002 0.98450000000000004 122.04000000000001 34.869800000000005 2.9250000000000003 10.055000000000001 86.570000000000007 83.250000000000014 32.500000000000007 1.0000000180025095e-35 2.7150000000000003 299.79250000000008 17.095400000000001 57.135000000000012
decision_type=2 2 2 2 2 2 2 2 2 2 2 2 2 2 2 2 2 2 2 2 2 2 2 2 2 2 2 2 2 2 2 2 2 2 2 2 2 2 2 2 2 2 2 2 2 2 2
left_child=3 -2 7 12 8 9 18 -3 16 14 19 -10 31 25 15 17 22 -5 -7 30 -21 -20 24 -24 32 27 -27 -13 29 -29 -11 -1 -4 -34 35 41 -16 -33 -39 -35 -41 42 45 -26 -45 -14 -38
right_child=1 2 4 5 -6 6 -8 -9 11 10 -12 13 34 -15 36 -17 -18 -19 21 20 -22 -23 23 -25 43 26 -28 28 -30 -31 -32 37 33 39 -36 -37 46 38 -40 40 -42 -43 -44 44 -46 -47 -48
leaf_value=-1.2094695061267784 11.134654810088023 1.5808251271314093 0.13802119307968033 -1.4235535627097087 4.6807370950396248 -1.0067820480746084 6.0250099546769089 6.0293182001302119 4.7957079948800985 0.57271276442395735 3.7882761067065012 -0.32199284415214491 1.8360549152975805 3.4391171113552552 -0.92751235706539559 2.9113159022746835 2.3314392511647171 1.3153958406179183 2.5477300222937043 0.60244017177346088 -1.3791311845732364 -0.087219925110156721 0.60078631256036708 -2.09961688045327 0.7709014499570892 3.890928156886782 0.90099751833229436 0.83537551424290868 -0.57945977794789827 3.6741418729515845 2.486963466949323 -0.9919774551539029 2.1419430056981237 1.907579259481281 -0.68024184618587746 1.5535690841712351 -0.61226969787139796 -0.76678686257418216 1.2952586152756862 1.6357441837244697 -0.50496718828663512 -0.76678115600363173 -0.38981722859224599 -1.5055664520387595 0.18671498030301728 0.00081723383494785868 0.044277690467898721
leaf_weight=4607 104 134 248 152 155 116 101 189 131 301 136 233 151 157 1366 108 162 123 142 263 189 103 156 130 341 125 180 100 106 136 135 328 306 127 1186 126 1099 110 128 100 162 380 417 146 486 104 834
leaf_count=4607 104 134 248 152 155 116 101 189 131 301 136 233 151 157 1366 108 162 123 142 263 189 103 156 130 341 125 180 100 106 136 135 328 306 127 1186 126 1099 110 128 100 162 380 417 146 486 104 834
internal_value=0.0251927 1.67437 1.4263 -0.508915 1.18273 0.0265827 1.8402 4.19439 1.02794 -0.151818 0.904575 1.9505 -0.876053 1.5868 -0.445777 0.683955 0.57149 -0.198169 0.65597 0.459163 -0.227353 1.44412 0.441011 -0.629709 0.601082 1.2528 2.13509 0.781913 1.53274 2.47987 1.16976 -1.1244 1.07946 1.41472 -0.332374 0.0181359 -0.577101 -0.431015 0.342992 0.838643 0.315211 -0.167067 0.172693 0.136817 -0.205984 1.09049 -0.329123
internal_weight=16819 4114 4010 12705 3687 5168 462 323 3532 4706 1024 1168 7537 1037 3682 383 2364 275 361 888 452 245 2202 286 1916 880 305 575 342 236 436 5173 943 695 2364 1178 3299 566 238 389 262 1052 672 973 632 255 1933
internal_count=16819 4114 4010 12705 3687 5168 462 323 3532 4706 1024 1168 7537 1037 3682 383 2364 275 361 888 452 245 2202 286 1916 880 305 575 342 236 436 5173 943 695 2364 1178 3299 566 238 389 262 1052 672 973 632 255 1933
is_linear=0
shrinkage=0.05


Tree=19
num_leaves=48
num_cat=0
split_feature=222 221 138 222 101 222 107 150 79 117 101 222 222 101 70 222 110 114 105 221 220 155 64 221 65 105 108 68 108 222 63 157 106 158 150 158 150 72 92 168 191 170 68 101 222 109 222
split_gain=5.364e+06 4.06365e+06 856357 849303 754238 529638 460444 361562 304188 327303 380788 338260 290653 245060 236814 228641 227103 205963 175185 158660 154809 271947 194569 154674 142623 137284 189859 131022 119532 144997 119196 153306 117282 110918 264133 115331 107103 113755 102020 100093 98224.8 94831 87215.8 84361.1 81818.5 79851 72606.1
threshold=63.051000000000009 140.55150000000003 0.18000000000000002 103.38850000000001 65.90000000000002 47.198000000000008 0.98450000000000004 376.01000000000005 1.0000000180025095e-35 1.0000000180025095e-35 82.250000000000014 143.85690000000002 41.336900000000007 57.500000000000007 164.49000000000004 29.258000000000006 1.5000000000000002 1.5000000000000002 32.500000000000007 50.77065000000001 47.226450000000007 102.00500000000001 0.42500000000000004 53.654550000000008 0.38500000000000006 37.500000000000007 4.5000000000000009 157.81000000000003 14.500000000000002 52.802850000000007 0.9850000000000001 40.405000000000008 69.250000000000014 2.6550000000000007 428.75950000000006 2.4950000000000006 299.4405000000001 3.1050000000000004 1.0000000180025095e-35 12.500000000000002 1.8250000000000004 1.0000000180025095e-35 168.07500000000002 82.950000000000017 36.38280000000001 23.000000000000004 22.800950000000004
decision_type=2 2 2 2 2 2 2 2 2 2 2 2 2 2 2 2 2 2 2 2 2 2 2 2 2 2 2 2 2 2 2 2 2 2 2 2 2 2 2 2 2 2 2 2 2 2 2
left_child=2 3 12 4 7 13 18 -2 9 10 17 16 46 15 19 -4 -12 -5 28 -6 25 -22 -23 44 -16 33 -27 -10 -7 -30 31 -20 -25 34 35 -21 37 -28 -14 42 45 -18 -38 -33 -15 -34 -1
right_child=1 -3 5 8 14 6 -8 -9 27 -11 11 -13 38 23 24 -17 41 -19 30 20 21 22 -24 32 -26 26 36 -29 29 -31 -32 43 40 -35 -36 -37 39 -39 -40 -41 -42 -43 -44 -45 -46 -47 -48
leaf_value=-1.4457950832853079 1.9648917204106759 10.86295607870659 -0.55224006532022618 3.1107372492729199 -0.44806762463168098 0.37250252474631584 3.2735773242300468 5.761677399646528 -0.34446080387139522 0.64107859648399423 -0.034488063576546588 4.7731562581210012 -0.091723394008766557 -0.91193537211141606 1.11992259745474 2.0398257145854699 3.4460767804231858 5.844676558789379 1.2399290160967573 0.082418424381564062 -2.4266854812514111 -0.47921741902828219 2.2361031640813036 1.2618919845308578 3.5452408581679942 -1.1886312769515619 1.0998830123555543 1.9994288091858228 0.50865858152610099 2.6106955937607581 -1.4656349196036658 -1.5326401568408456 0.46533402817786779 0.7490043964094788 3.2979608285558095 2.1960753060803557 2.7592052993695599 -1.0828198434759493 -0.70968456633843191 0.50107168370439104 1.2439083543478275 1.391730270622408 0.98650463250066567 0.40030220995227306 -0.30153422419466247 -0.81483958481515595 -0.98638840512009096
leaf_weight=1185 170 112 148 125 379 349 167 100 118 142 131 112 1135 1435 153 198 132 166 201 179 105 174 105 174 101 154 100 119 146 188 134 123 172 523 181 100 120 145 1623 386 101 101 167 103 891 412 3207
leaf_count=1185 170 112 148 125 379 349 167 100 118 142 131 112 1135 1435 153 198 132 166 201 179 105 174 105 174 101 154 100 119 146 188 134 123 172 523 181 100 120 145 1623 386 101 101 167 103 891 412 3207
internal_value=0.0445876 1.49762 -0.508247 1.26153 0.858299 -0.00211658 0.816374 3.38718 2.43568 2.85141 3.25926 2.37966 -0.85803 -0.329327 0.635004 0.932685 1.63214 4.68498 0.484144 0.502762 0.650636 -0.270298 0.547014 -0.466674 2.09444 0.82277 0.43082 0.835885 1.0213 1.6961 -0.170482 0.238434 0.106609 1.24934 1.81533 0.845139 0.703491 -0.191071 -0.4555 1.02895 -0.188261 2.56532 1.73471 -0.653815 -0.678345 -0.437651 -1.11064
internal_weight=16692 4600 12092 4488 3342 4942 1411 270 1146 909 767 476 7150 3531 3072 346 364 291 1244 2818 2439 384 279 3185 254 2055 1072 237 683 334 561 427 859 983 460 279 918 245 2758 673 685 233 287 226 2326 584 4392
internal_count=16692 4600 12092 4488 3342 4942 1411 270 1146 909 767 476 7150 3531 3072 346 364 291 1244 2818 2439 384 279 3185 254 2055 1072 237 683 334 561 427 859 983 460 279 918 245 2758 673 685 233 287 226 2326 584 4392
is_linear=0
shrinkage=0.05


Tree=20
num_leaves=48
num_cat=0
split_feature=220 222 221 222 139 101 222 83 92 220 116 140 108 155 101 145 101 139 220 222 105 105 221 89 220 222 71 70 105 69 150 105 169 169 169 174 222 61 139 168 156 71 67 221 101 101 67
split_gain=5.45085e+06 3.66562e+06 774001 645115 552201 458245 403238 327485 236884 231611 230782 224615 186761 163102 159636 166893 188899 148477 188964 140945 175530 134753 130563 126837 123571 121056 210684 111311 96491.5 94195.3 93620.4 93609.9 145443 117454 101435 92331.8 91617.9 90511.1 83954.3 100983 106450 75211.2 75127.2 91892.7 75095.2 73409 72937.2
threshold=139.43205000000003 64.782000000000025 113.62625000000001 37.664500000000011 1.5000000000000002 61.250000000000007 103.38850000000001 1.0000000180025095e-35 1.0000000180025095e-35 62.088600000000007 1.0000000180025095e-35 2.5000000000000004 2.5000000000000004 47.095000000000006 92.65000000000002 1.0000000180025095e-35 77.950000000000017 1.5000000000000002 32.139700000000005 43.911500000000011 47.500000000000007 47.500000000000007 45.169700000000006 1.0000000180025095e-35 14.691800000000002 87.671000000000021 32.155000000000008 74.165000000000006 41.250000000000007 163.80500000000004 275.1375000000001 47.500000000000007 16.219800000000003 16.175050000000002 12.401050000000003 1.0000000180025095e-35 15.711000000000002 1979.5000000000002 1.5000000000000002 8.5000000000000018 2.4850000000000008 17.385000000000002 2.9450000000000007 57.637200000000007 90.350000000000009 80.050000000000011 2.8450000000000002
decision_type=2 2 2 2 2 2 2 2 2 2 2 2 2 2 2 2 2 2 2 2 2 2 2 2 2 2 2 2 2 2 2 2 2 2 2 2 2 2 2 2 2 2 2 2 2 2 2
left_child=1 3 6 7 -4 -5 11 23 19 10 -8 12 45 -9 15 25 -17 18 -12 30 22 -19 -21 24 -1 27 -27 -14 -18 -6 -7 33 -33 34 -29 46 -25 41 39 40 -26 -24 -39 -44 -23 -3 -22
right_child=-2 2 4 5 29 8 9 13 -10 -11 17 -13 14 -15 -16 16 28 21 -20 20 35 44 37 36 38 26 -28 31 -30 -31 -32 32 -34 -35 -36 -37 -38 42 -40 -41 -42 -43 43 -45 -46 -47 -48
leaf_value=-1.1820030218443403 10.551578492260553 -1.1322666049329311 5.2660836579951837 2.3097633956581034 2.5776405218514533 0.80499718269907439 -0.62764085367469513 -0.19136002622073212 -0.55180343625157457 4.1408134485332715 1.5738992746692997 2.5370644700300846 0.13114865786291263 2.3050972378413594 -0.19213317495374499 -1.5651351565495135 1.6653255821113857 2.2932699852756091 3.9583636126563522 -0.10071993432183197 0.80945293995860779 -0.5514503947968753 1.1922471506255012 -1.3646483394580011 -0.43147172848671533 3.3506200718938204 1.0394773187927713 1.4016363935399947 -0.21849339306354523 0.48835469351874461 -0.62494199881730406 0.1804159482470018 2.1152542638778686 0.44032311035228561 3.2911650189082993 -1.4364992862005557 -0.14529043648606446 0.5162912619212715 -1.1078817027493366 -0.85261573863598028 1.2771640159418247 -0.62316171946525578 1.1512803224896297 2.6692246885544328 1.3450299634227476 0.21020631591424996 -0.23363804860678303
leaf_weight=3713 121 182 187 185 109 132 100 157 2741 102 180 157 337 111 368 127 141 167 157 344 216 105 104 194 206 155 272 153 130 107 825 347 134 121 136 125 735 180 488 362 162 124 262 163 102 229 735
leaf_count=3713 121 182 187 185 109 132 100 157 2741 102 180 157 337 111 368 127 141 167 157 344 216 105 104 194 206 155 272 153 130 107 825 347 134 121 136 125 735 180 488 362 162 124 262 163 102 229 735
internal_value=0.0215561 -0.0559747 1.19909 -0.4966 3.28294 -0.13416 0.983087 -0.859431 -0.21051 1.90237 1.61608 0.701748 0.599142 0.847346 0.766402 0.93823 0.0188378 1.93209 2.69319 0.0809991 0.296906 1.24094 0.718617 -0.93762 -1.03859 1.15918 1.88429 0.905723 0.764168 1.54969 -0.427075 1.19821 0.722706 1.75295 2.29911 -0.164629 -0.401118 1.05669 -0.600813 -0.260789 0.322122 0.20651 1.37622 1.73836 0.385021 -0.385576 0.00387992
internal_weight=16690 16569 4305 12264 403 6136 3902 6128 5951 913 811 2989 2832 268 2421 2053 398 711 337 3210 2253 374 1177 5860 4931 1655 427 1228 271 216 957 891 481 410 289 1076 929 833 1218 730 368 228 605 425 207 411 951
internal_count=16690 16569 4305 12264 403 6136 3902 6128 5951 913 811 2989 2832 268 2421 2053 398 711 337 3210 2253 374 1177 5860 4931 1655 427 1228 271 216 957 891 481 410 289 1076 929 833 1218 730 368 228 605 425 207 411 951
is_linear=0
shrinkage=0.05


Tree=21
num_leaves=48
num_cat=0
split_feature=222 159 101 222 141 66 139 222 101 112 220 157 101 222 134 156 66 63 141 150 105 169 64 155 66 101 150 150 222 165 105 220 63 220 220 106 150 166 61 150 150 66 72 70 219 222 70
split_gain=4.10872e+06 3.27659e+06 937417 804345 712691 535413 494349 428115 367283 257548 213127 200738 197936 197411 191003 203514 243845 317527 181797 170989 156145 155886 153096 151836 138724 138255 140600 137553 146113 133664 131673 129760 160320 112007 111899 102245 138354 99349.1 137874 135145 85487.8 84909.8 83222.1 117161 77394.3 130689 72942.9
threshold=53.949900000000007 45.615000000000009 64.250000000000014 143.85690000000002 1.0000000180025095e-35 2.9450000000000007 1.5000000000000002 88.703550000000021 71.90000000000002 1.5000000000000002 71.027100000000019 43.655000000000008 86.550000000000011 28.498500000000003 1.0000000180025095e-35 2.5650000000000004 2.7950000000000004 0.51500000000000012 1.0000000180025095e-35 334.30850000000004 31.000000000000004 15.189950000000001 0.54500000000000015 108.89000000000001 2.8750000000000004 92.65000000000002 402.50950000000006 273.84750000000003 28.498500000000003 1.0000000180025095e-35 37.500000000000007 41.347600000000007 0.57500000000000007 60.341100000000004 34.553050000000006 78.950000000000017 434.57450000000006 1.0000000180025095e-35 2001.5000000000002 397.69150000000008 300.17150000000009 3.1950000000000007 3.6750000000000003 112.51000000000001 57.741600000000005 42.14350000000001 71.035000000000011
decision_type=2 2 2 2 2 2 2 2 2 2 2 2 2 2 2 2 2 2 2 2 2 2 2 2 2 2 2 2 2 2 2 2 2 2 2 2 2 2 2 2 2 2 2 2 2 2 2
left_child=8 2 -2 4 -4 -5 7 10 19 23 11 24 -11 -10 -9 16 -16 -18 29 20 22 -21 27 30 42 37 -27 -1 -29 -15 41 32 35 44 -17 46 -37 38 39 -25 -30 -8 43 -6 45 -20 -13
right_child=1 -3 3 5 6 -7 9 14 13 12 -12 31 -14 18 15 34 17 -19 33 21 -22 -23 -24 25 -26 26 -28 28 40 -31 -32 -33 -34 -35 -36 36 -38 -39 -40 -41 -42 -43 -44 -45 -46 -47 -48
leaf_value=-1.1207635495973671 4.7627917254765828 9.9383498590771513 3.9486168505742576 1.1944028139883471 0.18910883198613707 5.4086009103979844 -0.2215160319103604 3.5956109837100314 -1.070508277114008 3.2735521425803507 2.6145810322284699 0.67757041920610028 0.28642027510133217 -0.4092402057136808 -1.0150602434510769 1.6208174697114428 3.5930262022651736 0.34805868566841691 -0.81050109834672568 2.8579135988272877 -0.90832069575681784 0.15453376879470537 2.1328556797291975 0.94800676663243577 -0.61646729178490156 -1.1957410270517523 1.0216764935907328 -1.0354729612668356 1.6046300882754261 1.4216336531701841 -0.98996035754269318 -0.76884385666044641 2.4854674051431096 0.62670673548117195 3.9270883543188115 0.74090815051342629 2.5342305318530571 -0.19353882354366914 0.30306309046106295 3.4114864795815714 0.060863638898126439 1.3258097471267571 -0.098969348730906015 2.5175049183040281 -1.0936010752161029 -0.26714017154293285 -1.0677261348408047
leaf_weight=183 149 100 156 154 114 148 677 147 2919 101 124 146 122 209 114 102 127 184 2811 101 390 112 100 125 503 219 105 119 218 189 633 100 175 168 113 440 142 181 221 101 152 101 211 102 944 1827 100
leaf_count=183 149 100 156 154 114 148 677 147 2919 101 124 146 122 209 114 102 127 184 2811 101 390 112 100 125 503 219 105 119 218 189 633 100 175 168 113 440 142 181 221 101 152 101 211 102 944 1827 100
internal_value=-0.00992876 1.00539 0.858235 0.760299 0.626414 3.27067 0.531998 0.97495 -0.616416 0.0275427 0.610231 0.486753 1.64791 -0.731883 1.97252 1.59469 0.956728 1.68044 -0.57096 0.144973 -0.0941411 1.44378 0.31781 -0.126006 -0.0543829 0.361712 -0.476201 0.0449463 0.482591 0.461579 -0.455092 0.942651 1.11388 -0.642497 2.84552 0.821349 1.18205 0.79408 1.19353 2.05912 0.972308 -0.019198 0.607638 1.29516 -0.680801 -0.596564 -0.0333502
internal_weight=16679 6237 6137 5988 5686 302 5530 2944 10442 2586 2157 2033 223 9067 787 640 425 311 6148 1375 1162 213 772 2363 930 952 324 672 489 398 1411 1103 1003 5750 215 828 582 628 447 226 370 778 427 216 5582 4638 246
